svm_type C_SVC
kernel_type LINEAR
nr_class 2
total_sv 4395
rho -0.0919705248389717
label 1 -1
nr_sv 2208 2187
SV
17.2932716670609 4:0.1 19:0.1 20:0.1 21:0.1 22:0.1 23:0.1 24:0.1 25:0.1 26:0.1 27:0.1
17.5236338020357 4:0.0666666667 28:0.0666666667 29:0.0666666667 30:0.0666666667 31:0.0666666667 32:0.0666666667 33:0.0666666667 34:0.0666666667 35:0.0666666667 36:0.0666666667 37:0.0666666667 38:0.0666666667 39:0.0666666667 40:0.0666666667 41:0.0666666667
32 25:0.0714285714 42:0.0714285714 43:0.0714285714 44:0.0714285714 45:0.0714285714 46:0.0714285714 47:0.0714285714 48:0.0714285714 49:0.0714285714 50:0.0714285714 51:0.0714285714 52:0.0714285714 53:0.0714285714 54:0.0714285714
13.120081381409 15:0.0714285714 76:0.0714285714 77:0.0714285714 78:0.0714285714 79:0.0714285714 80:0.0714285714 81:0.0714285714 82:0.0714285714 83:0.0714285714 84:0.0714285714 85:0.0714285714 86:0.0714285714 87:0.0714285714 88:0.0714285714
32 15:0.0625 89:0.0625 90:0.0625 91:0.0625 92:0.0625 93:0.0625 94:0.0625 95:0.0625 96:0.0625 97:0.0625 98:0.0625 99:0.0625 100:0.0625 101:0.0625 102:0.0625 103:0.0625
13.1208938848501 4:0.0909090909 104:0.0909090909 105:0.0909090909 106:0.0909090909 107:0.0909090909 108:0.0909090909 109:0.0909090909 110:0.0909090909 111:0.0909090909 112:0.0909090909 113:0.0909090909
5.40505167780313 4:0.1 123:0.1 124:0.1 125:0.1 126:0.1 127:0.1 128:0.1 129:0.1 130:0.1 131:0.1
11.1268893510663 119:0.0909090909 132:0.0909090909 133:0.0909090909 134:0.0909090909 135:0.0909090909 136:0.0909090909 137:0.0909090909 138:0.0909090909 139:0.0909090909 140:0.0909090909 141:0.0909090909
13.4411413800566 142:0.0714285714 143:0.0714285714 144:0.0714285714 145:0.0714285714 146:0.0714285714 147:0.0714285714 148:0.0714285714 149:0.0714285714 150:0.0714285714 151:0.0714285714 152:0.0714285714 153:0.0714285714 154:0.0714285714 155:0.0714285714
4.18742974994433 4:0.0625 19:0.0625 81:0.0625 135:0.0625 182:0.0625 183:0.0625 184:0.0625 185:0.0625 186:0.0625 187:0.0625 188:0.0625 189:0.0625 190:0.0625 191:0.0625 192:0.0625 193:0.0625
8.12792857973913 127:0.1428571429 194:0.1428571429 195:0.1428571429 196:0.1428571429 197:0.1428571429 198:0.1428571429 199:0.1428571429
8.74782607821262 48:0.0666666667 112:0.0666666667 116:0.0666666667 216:0.0666666667 217:0.0666666667 218:0.0666666667 219:0.0666666667 220:0.0666666667 221:0.0666666667 222:0.0666666667 223:0.0666666667 224:0.0666666667 225:0.0666666667 226:0.0666666667 227:0.0666666667
3.58362456164289 1:0.1428571429 4:0.1428571429 228:0.1428571429 248:0.1428571429 249:0.1428571429 250:0.1428571429 251:0.1428571429
21.4391582202448 4:0.1 127:0.1 252:0.1 253:0.1 254:0.1 255:0.1 256:0.1 257:0.1 258:0.1 259:0.1
0.463832940328185 4:0.0625 76:0.0625 91:0.0625 281:0.0625 282:0.0625 283:0.0625 284:0.0625 285:0.0625 286:0.0625 287:0.0625 288:0.0625 289:0.0625 290:0.0625 291:0.0625 292:0.0625 293:0.0625
32 4:0.0526315789 15:0.0526315789 73:0.0526315789 280:0.0526315789 294:0.0526315789 295:0.0526315789 296:0.0526315789 297:0.0526315789 298:0.0526315789 299:0.0526315789 300:0.0526315789 301:0.0526315789 302:0.0526315789 303:0.0526315789 304:0.0526315789 305:0.0526315789 306:0.0526315789 307:0.0526315789 308:0.0526315789
29.7422101058715 4:0.0434782609 76:0.0434782609 165:0.0434782609 223:0.0434782609 309:0.0434782609 310:0.0434782609 311:0.0434782609 312:0.0434782609 313:0.0434782609 314:0.0434782609 315:0.0434782609 316:0.0434782609 317:0.0434782609 318:0.0434782609 319:0.0434782609 320:0.0434782609 321:0.0434782609 322:0.0434782609 323:0.0434782609 324:0.0434782609 325:0.0434782609 326:0.0434782609 327:0.0434782609
32 16:0.0666666667 119:0.0666666667 135:0.0666666667 328:0.0666666667 329:0.0666666667 330:0.0666666667 331:0.0666666667 332:0.0666666667 333:0.0666666667 334:0.0666666667 335:0.0666666667 336:0.0666666667 337:0.0666666667 338:0.0666666667 339:0.0666666667
26.9146941327509 4:0.0588235294 139:0.0588235294 275:0.0588235294 340:0.0588235294 341:0.0588235294 342:0.0588235294 343:0.0588235294 344:0.0588235294 345:0.0588235294 346:0.0588235294 347:0.0588235294 348:0.0588235294 349:0.0588235294 350:0.0588235294 351:0.0588235294 352:0.0588235294 353:0.0588235294
16.4122294038934 162:0.0714285714 319:0.0714285714 363:0.0714285714 364:0.0714285714 365:0.0714285714 366:0.0714285714 367:0.0714285714 368:0.0714285714 369:0.0714285714 370:0.0714285714 371:0.0714285714 372:0.0714285714 373:0.0714285714 374:0.0714285714
18.8824952434156 4:0.0526315789 16:0.0526315789 76:0.0526315789 116:0.0526315789 248:0.0526315789 318:0.0526315789 378:0.0526315789 379:0.0526315789 380:0.0526315789 381:0.0526315789 382:0.0526315789 383:0.0526315789 384:0.0526315789 385:0.0526315789 386:0.0526315789 387:0.0526315789 388:0.0526315789 389:0.0526315789 390:0.0526315789
12.9894970120841 83:0.0526315789 91:0.0526315789 300:0.0526315789 391:0.0526315789 392:0.0526315789 393:0.0526315789 394:0.0526315789 395:0.0526315789 396:0.0526315789 397:0.0526315789 398:0.0526315789 399:0.0526315789 400:0.0526315789 401:0.0526315789 402:0.0526315789 403:0.0526315789 404:0.0526315789 405:0.0526315789 406:0.0526315789
17.700272992613 4:0.0714285714 116:0.0714285714 247:0.0714285714 291:0.0714285714 363:0.0714285714 425:0.0714285714 426:0.0714285714 427:0.0714285714 428:0.0714285714 429:0.0714285714 430:0.0714285714 431:0.0714285714 432:0.0714285714 433:0.0714285714
6.81881535167728 402:0.125 434:0.125 435:0.125 436:0.125 437:0.125 438:0.125 439:0.125 440:0.125
32 160:0.0714285714 213:0.0714285714 432:0.0714285714 455:0.0714285714 456:0.0714285714 457:0.0714285714 458:0.0714285714 459:0.0714285714 460:0.0714285714 461:0.0714285714 462:0.0714285714 463:0.0714285714 464:0.0714285714 465:0.0714285714
32 6:0.0714285714 76:0.0714285714 466:0.0714285714 467:0.0714285714 468:0.0714285714 469:0.0714285714 470:0.0714285714 471:0.0714285714 472:0.0714285714 473:0.0714285714 474:0.0714285714 475:0.0714285714 476:0.0714285714 477:0.0714285714
16.5373567231257 4:0.0588235294 263:0.0588235294 310:0.0588235294 401:0.0588235294 421:0.0588235294 483:0.0588235294 484:0.0588235294 485:0.0588235294 486:0.0588235294 487:0.0588235294 488:0.0588235294 489:0.0588235294 490:0.0588235294 491:0.0588235294 492:0.0588235294 493:0.0588235294 494:0.0588235294
22.6917263001746 36:0.0588235294 116:0.0588235294 172:0.0588235294 220:0.0588235294 267:0.0588235294 346:0.0588235294 359:0.0588235294 472:0.0588235294 495:0.0588235294 496:0.0588235294 497:0.0588235294 498:0.0588235294 499:0.0588235294 500:0.0588235294 501:0.0588235294 502:0.0588235294 503:0.0588235294
12.6027241818238 4:0.0769230769 119:0.0769230769 225:0.0769230769 515:0.0769230769 516:0.0769230769 517:0.0769230769 518:0.0769230769 519:0.0769230769 520:0.0769230769 521:0.0769230769 522:0.0769230769 523:0.0769230769 524:0.0769230769
2.16184644433846 232:0.125 322:0.125 525:0.125 526:0.125 527:0.125 528:0.125 529:0.125 530:0.125
29.205957560818 15:0.05 16:0.05 36:0.05 91:0.05 116:0.05 123:0.05 216:0.05 217:0.05 220:0.05 225:0.05 563:0.05 572:0.05 573:0.05 574:0.05 575:0.05 576:0.05 577:0.05 578:0.05 579:0.05 580:0.05
11.492737029508 82:0.0625 112:0.0625 116:0.0625 585:0.0625 586:0.0625 587:0.0625 588:0.0625 589:0.0625 590:0.0625 591:0.0625 592:0.0625 593:0.0625 594:0.0625 595:0.0625 596:0.0625 597:0.0625
8.77354636850853 490:0.1666666667 598:0.1666666667 599:0.1666666667 600:0.1666666667 601:0.1666666667 602:0.1666666667
2.79003486592688 194:0.0833333333 324:0.0833333333 326:0.0833333333 609:0.0833333333 610:0.0833333333 611:0.0833333333 612:0.0833333333 613:0.0833333333 614:0.0833333333 615:0.0833333333 616:0.0833333333 617:0.0833333333
5.07306830418915 167:0.0909090909 256:0.0909090909 347:0.0909090909 430:0.0909090909 440:0.0909090909 638:0.0909090909 639:0.0909090909 640:0.0909090909 641:0.0909090909 642:0.0909090909 643:0.0909090909
31.6241165480341 4:0.0526315789 161:0.0526315789 172:0.0526315789 644:0.0526315789 645:0.0526315789 646:0.0526315789 647:0.0526315789 648:0.0526315789 649:0.0526315789 650:0.0526315789 651:0.0526315789 652:0.0526315789 653:0.0526315789 654:0.0526315789 655:0.0526315789 656:0.0526315789 657:0.0526315789 658:0.0526315789 659:0.0526315789
24.9029525414324 4:0.0714285714 15:0.0714285714 86:0.0714285714 119:0.0714285714 201:0.0714285714 220:0.0714285714 299:0.0714285714 432:0.0714285714 667:0.0714285714 668:0.0714285714 669:0.0714285714 670:0.0714285714 671:0.0714285714 672:0.0714285714
26.32085269147 248:0.2 347:0.2 682:0.2 702:0.2 703:0.2
32 1:0.0588235294 4:0.0588235294 40:0.0588235294 91:0.0588235294 188:0.0588235294 291:0.0588235294 304:0.0588235294 704:0.0588235294 705:0.0588235294 706:0.0588235294 707:0.0588235294 708:0.0588235294 709:0.0588235294 710:0.0588235294 711:0.0588235294 712:0.0588235294 713:0.0588235294
17.5605089872869 4:0.0526315789 25:0.0526315789 58:0.0526315789 62:0.0526315789 76:0.0526315789 305:0.0526315789 454:0.0526315789 736:0.0526315789 737:0.0526315789 738:0.0526315789 739:0.0526315789 740:0.0526315789 741:0.0526315789 742:0.0526315789 743:0.0526315789 744:0.0526315789 745:0.0526315789 746:0.0526315789 747:0.0526315789
25.2706003056921 4:0.125 36:0.125 748:0.125 749:0.125 750:0.125 751:0.125 752:0.125 753:0.125
21.9523976178733 300:0.1 652:0.1 754:0.1 755:0.1 756:0.1 757:0.1 758:0.1 759:0.1 760:0.1 761:0.1
25.5993228960475 1:0.0555555556 4:0.0555555556 83:0.0555555556 91:0.0555555556 225:0.0555555556 701:0.0555555556 762:0.0555555556 763:0.0555555556 764:0.0555555556 765:0.0555555556 766:0.0555555556 767:0.0555555556 768:0.0555555556 769:0.0555555556 770:0.0555555556 771:0.0555555556 772:0.0555555556 773:0.0555555556
2.66152806160154 4:0.0714285714 91:0.0714285714 220:0.0714285714 304:0.0714285714 344:0.0714285714 774:0.0714285714 775:0.0714285714 776:0.0714285714 777:0.0714285714 778:0.0714285714 779:0.0714285714 780:0.0714285714 781:0.0714285714 782:0.0714285714
32 4:0.0526315789 48:0.0526315789 54:0.0526315789 98:0.0526315789 222:0.0526315789 248:0.0526315789 590:0.0526315789 783:0.0526315789 784:0.0526315789 785:0.0526315789 786:0.0526315789 787:0.0526315789 788:0.0526315789 789:0.0526315789 790:0.0526315789 791:0.0526315789 792:0.0526315789 793:0.0526315789 794:0.0526315789
24.0157881511986 4:0.0526315789 135:0.0526315789 803:0.0526315789 804:0.0526315789 805:0.0526315789 806:0.0526315789 807:0.0526315789 808:0.0526315789 809:0.0526315789 810:0.0526315789 811:0.0526315789 812:0.0526315789 813:0.0526315789 814:0.0526315789 815:0.0526315789 816:0.0526315789 817:0.0526315789 818:0.0526315789 819:0.0526315789
2.90960214668892 4:0.037037037 15:0.037037037 64:0.037037037 75:0.037037037 76:0.037037037 118:0.037037037 225:0.037037037 304:0.037037037 381:0.037037037 687:0.037037037 780:0.037037037 831:0.037037037 832:0.037037037 833:0.037037037 834:0.037037037 835:0.037037037 836:0.037037037 837:0.037037037 838:0.037037037 839:0.037037037 840:0.037037037 841:0.037037037 842:0.037037037 843:0.037037037 844:0.037037037 845:0.037037037 846:0.037037037
7.33971513679042 847:0.1 848:0.1 849:0.1 850:0.1 851:0.1 852:0.1 853:0.1 854:0.1 855:0.1 856:0.1
32 4:0.0666666667 73:0.0666666667 783:0.0666666667 857:0.0666666667 858:0.0666666667 859:0.0666666667 860:0.0666666667 861:0.0666666667 862:0.0666666667 863:0.0666666667 864:0.0666666667 865:0.0666666667 866:0.0666666667 867:0.0666666667 868:0.0666666667
5.46915854021475 4:0.0714285714 248:0.0714285714 454:0.0714285714 578:0.0714285714 634:0.0714285714 869:0.0714285714 870:0.0714285714 871:0.0714285714 872:0.0714285714 873:0.0714285714 874:0.0714285714 875:0.0714285714 876:0.0714285714 877:0.0714285714
0.781861646301623 4:0.125 243:0.125 884:0.125 885:0.125 886:0.125 887:0.125 888:0.125 889:0.125
32 75:0.0416666667 76:0.0416666667 213:0.0416666667 481:0.0416666667 519:0.0416666667 613:0.0416666667 913:0.0416666667 914:0.0416666667 915:0.0416666667 916:0.0416666667 917:0.0416666667 918:0.0416666667 919:0.0416666667 920:0.0416666667 921:0.0416666667 922:0.0416666667 923:0.0416666667 924:0.0416666667 925:0.0416666667 926:0.0416666667 927:0.0416666667 928:0.0416666667 929:0.0416666667 930:0.0416666667
22.7421516161822 4:0.0769230769 91:0.0769230769 228:0.0769230769 319:0.0769230769 669:0.0769230769 730:0.0769230769 931:0.0769230769 932:0.0769230769 933:0.0769230769 934:0.0769230769 935:0.0769230769 936:0.0769230769 937:0.0769230769
0.505494728054999 91:0.0833333333 304:0.0833333333 573:0.0833333333 631:0.0833333333 951:0.0833333333 952:0.0833333333 953:0.0833333333 954:0.0833333333 955:0.0833333333 956:0.0833333333 957:0.0833333333 958:0.0833333333
12.2353897834542 25:0.1 319:0.1 708:0.1 959:0.1 960:0.1 961:0.1 962:0.1 963:0.1 964:0.1 965:0.1
32 4:0.0344827586 70:0.0344827586 116:0.0344827586 220:0.0344827586 318:0.0344827586 335:0.0344827586 385:0.0344827586 390:0.0344827586 421:0.0344827586 491:0.0344827586 538:0.0344827586 956:0.0344827586 971:0.0344827586 972:0.0344827586 973:0.0344827586 974:0.0344827586 975:0.0344827586 976:0.0344827586 977:0.0344827586 978:0.0344827586 979:0.0344827586 980:0.0344827586 981:0.0344827586 982:0.0344827586 983:0.0344827586 984:0.0344827586 985:0.0344827586 986:0.0344827586 987:0.0344827586
11.9724983493533 4:0.0476190476 75:0.0476190476 220:0.0476190476 244:0.0476190476 468:0.0476190476 481:0.0476190476 809:0.0476190476 1001:0.0476190476 1002:0.0476190476 1003:0.0476190476 1004:0.0476190476 1005:0.0476190476 1006:0.0476190476 1007:0.0476190476 1008:0.0476190476 1009:0.0476190476 1010:0.0476190476 1011:0.0476190476 1012:0.0476190476 1013:0.0476190476 1014:0.0476190476
32 4:0.04 56:0.04 119:0.04 310:0.04 322:0.04 336:0.04 546:0.04 590:0.04 660:0.04 724:0.04 827:0.04 1022:0.04 1023:0.04 1024:0.04 1025:0.04 1026:0.04 1027:0.04 1028:0.04 1029:0.04 1030:0.04 1031:0.04 1032:0.04 1033:0.04 1034:0.04 1035:0.04
9.47557099293896 4:0.0588235294 119:0.0588235294 127:0.0588235294 201:0.0588235294 322:0.0588235294 325:0.0588235294 448:0.0588235294 517:0.0588235294 873:0.0588235294 1053:0.0588235294 1054:0.0588235294 1055:0.0588235294 1056:0.0588235294 1057:0.0588235294 1058:0.0588235294 1059:0.0588235294 1060:0.0588235294
1.04262037001055 15:0.1666666667 381:0.1666666667 1064:0.1666666667 1065:0.1666666667 1066:0.1666666667 1067:0.1666666667
32 119:0.0833333333 120:0.0833333333 223:0.0833333333 248:0.0833333333 1068:0.0833333333 1069:0.0833333333 1070:0.0833333333 1071:0.0833333333 1072:0.0833333333 1073:0.0833333333 1074:0.0833333333 1075:0.0833333333
12.3357862054831 76:0.1 161:0.1 279:0.1 1076:0.1 1077:0.1 1078:0.1 1079:0.1 1080:0.1 1081:0.1 1082:0.1
5.93023397507839 1083:0.1428571429 1084:0.1428571429 1085:0.1428571429 1086:0.1428571429 1087:0.1428571429 1088:0.1428571429 1089:0.1428571429
25.9064816220991 37:0.0555555556 291:0.0555555556 322:0.0555555556 329:0.0555555556 608:0.0555555556 626:0.0555555556 1090:0.0555555556 1091:0.0555555556 1092:0.0555555556 1093:0.0555555556 1094:0.0555555556 1095:0.0555555556 1096:0.0555555556 1097:0.0555555556 1098:0.0555555556 1099:0.0555555556 1100:0.0555555556 1101:0.0555555556
5.78096747150784 4:0.0625 62:0.0625 70:0.0625 481:0.0625 1020:0.0625 1107:0.0625 1108:0.0625 1109:0.0625 1110:0.0625 1111:0.0625 1112:0.0625 1113:0.0625 1114:0.0625 1115:0.0625 1116:0.0625 1117:0.0625
24.6295284448512 4:0.0666666667 687:0.0666666667 844:0.0666666667 968:0.0666666667 1021:0.0666666667 1125:0.0666666667 1126:0.0666666667 1127:0.0666666667 1128:0.0666666667 1129:0.0666666667 1130:0.0666666667 1131:0.0666666667 1132:0.0666666667 1133:0.0666666667 1134:0.0666666667
1.05902624408324 4:0.0769230769 119:0.0769230769 141:0.0769230769 430:0.0769230769 674:0.0769230769 1151:0.0769230769 1152:0.0769230769 1153:0.0769230769 1154:0.0769230769 1155:0.0769230769 1156:0.0769230769 1157:0.0769230769 1158:0.0769230769
5.42920061360426 4:0.0769230769 310:0.0769230769 382:0.0769230769 1159:0.0769230769 1160:0.0769230769 1161:0.0769230769 1162:0.0769230769 1163:0.0769230769 1164:0.0769230769 1165:0.0769230769 1166:0.0769230769 1167:0.0769230769 1168:0.0769230769
12.5212320478423 4:0.0588235294 69:0.0588235294 83:0.0588235294 172:0.0588235294 388:0.0588235294 428:0.0588235294 998:0.0588235294 1034:0.0588235294 1169:0.0588235294 1170:0.0588235294 1171:0.0588235294 1172:0.0588235294 1173:0.0588235294 1174:0.0588235294 1175:0.0588235294 1176:0.0588235294 1177:0.0588235294
32 16:0.0555555556 76:0.0555555556 123:0.0555555556 210:0.0555555556 220:0.0555555556 275:0.0555555556 304:0.0555555556 322:0.0555555556 465:0.0555555556 722:0.0555555556 1185:0.0555555556 1186:0.0555555556 1187:0.0555555556 1188:0.0555555556 1189:0.0555555556 1190:0.0555555556 1191:0.0555555556 1192:0.0555555556
5.05510603081243 115:0.0833333333 880:0.0833333333 1193:0.0833333333 1194:0.0833333333 1195:0.0833333333 1196:0.0833333333 1197:0.0833333333 1198:0.0833333333 1199:0.0833333333 1200:0.0833333333 1201:0.0833333333 1202:0.0833333333
5.50389342515474 4:0.0555555556 27:0.0555555556 36:0.0555555556 127:0.0555555556 930:0.0555555556 987:0.0555555556 1203:0.0555555556 1204:0.0555555556 1205:0.0555555556 1206:0.0555555556 1207:0.0555555556 1208:0.0555555556 1209:0.0555555556 1210:0.0555555556 1211:0.0555555556 1212:0.0555555556 1213:0.0555555556 1214:0.0555555556
22.703579697471 4:0.0625 16:0.0625 220:0.0625 256:0.0625 305:0.0625 575:0.0625 1215:0.0625 1216:0.0625 1217:0.0625 1218:0.0625 1219:0.0625 1220:0.0625 1221:0.0625 1222:0.0625 1223:0.0625 1224:0.0625
32 40:0.25 315:0.25 901:0.25 1243:0.25
7.49487362505343 49:0.0588235294 584:0.0588235294 1021:0.0588235294 1070:0.0588235294 1244:0.0588235294 1245:0.0588235294 1246:0.0588235294 1247:0.0588235294 1248:0.0588235294 1249:0.0588235294 1250:0.0588235294 1251:0.0588235294 1252:0.0588235294 1253:0.0588235294 1254:0.0588235294 1255:0.0588235294 1256:0.0588235294
5.01666855507232 127:0.0769230769 301:0.0769230769 318:0.0769230769 461:0.0769230769 620:0.0769230769 1262:0.0769230769 1263:0.0769230769 1264:0.0769230769 1265:0.0769230769 1266:0.0769230769 1267:0.0769230769 1268:0.0769230769 1269:0.0769230769
32 4:0.0588235294 45:0.0588235294 76:0.0588235294 271:0.0588235294 275:0.0588235294 396:0.0588235294 579:0.0588235294 722:0.0588235294 1275:0.0588235294 1276:0.0588235294 1277:0.0588235294 1278:0.0588235294 1279:0.0588235294 1280:0.0588235294 1281:0.0588235294 1282:0.0588235294 1283:0.0588235294
32 4:0.0588235294 15:0.0588235294 25:0.0588235294 309:0.0588235294 732:0.0588235294 879:0.0588235294 1292:0.0588235294 1293:0.0588235294 1294:0.0588235294 1295:0.0588235294 1296:0.0588235294 1297:0.0588235294 1298:0.0588235294 1299:0.0588235294 1300:0.0588235294 1301:0.0588235294 1302:0.0588235294
7.15406534008159 4:0.0909090909 1044:0.0909090909 1145:0.0909090909 1338:0.0909090909 1339:0.0909090909 1340:0.0909090909 1341:0.0909090909 1342:0.0909090909 1343:0.0909090909 1344:0.0909090909 1345:0.0909090909
32 34:0.0666666667 127:0.0666666667 988:0.0666666667 998:0.0666666667 1064:0.0666666667 1318:0.0666666667 1346:0.0666666667 1347:0.0666666667 1348:0.0666666667 1349:0.0666666667 1350:0.0666666667 1351:0.0666666667 1352:0.0666666667 1353:0.0666666667 1354:0.0666666667
32 4:0.0909090909 16:0.0909090909 210:0.0909090909 420:0.0909090909 865:0.0909090909 1374:0.0909090909 1375:0.0909090909 1376:0.0909090909 1377:0.0909090909 1378:0.0909090909 1379:0.0909090909
5.89380975115143 275:0.0909090909 625:0.0909090909 1185:0.0909090909 1380:0.0909090909 1381:0.0909090909 1382:0.0909090909 1383:0.0909090909 1384:0.0909090909 1385:0.0909090909 1386:0.0909090909 1387:0.0909090909
13.6602648125231 3:0.0555555556 1397:0.0555555556 1398:0.0555555556 1399:0.0555555556 1400:0.0555555556 1401:0.0555555556 1402:0.0555555556 1403:0.0555555556 1404:0.0555555556 1405:0.0555555556 1406:0.0555555556 1407:0.0555555556 1408:0.0555555556 1409:0.0555555556 1410:0.0555555556 1411:0.0555555556 1412:0.0555555556 1413:0.0555555556
2.178019325206 4:0.1111111111 75:0.1111111111 608:0.1111111111 1277:0.1111111111 1432:0.1111111111 1433:0.1111111111 1434:0.1111111111 1435:0.1111111111 1436:0.1111111111
32 4:0.0588235294 15:0.0588235294 37:0.0588235294 49:0.0588235294 69:0.0588235294 127:0.0588235294 222:0.0588235294 265:0.0588235294 291:0.0588235294 932:0.0588235294 995:0.0588235294 1274:0.0588235294 1459:0.0588235294 1460:0.0588235294 1461:0.0588235294 1462:0.0588235294 1463:0.0588235294
7.83968816111475 4:0.125 1464:0.125 1465:0.125 1466:0.125 1467:0.125 1468:0.125 1469:0.125 1470:0.125
32 4:0.0588235294 91:0.0588235294 99:0.0588235294 116:0.0588235294 1288:0.0588235294 1359:0.0588235294 1501:0.0588235294 1502:0.0588235294 1503:0.0588235294 1504:0.0588235294 1505:0.0588235294 1506:0.0588235294 1507:0.0588235294 1508:0.0588235294 1509:0.0588235294 1510:0.0588235294 1511:0.0588235294
32 4:0.0476190476 60:0.0476190476 76:0.0476190476 243:0.0476190476 475:0.0476190476 684:0.0476190476 964:0.0476190476 1169:0.0476190476 1202:0.0476190476 1241:0.0476190476 1512:0.0476190476 1513:0.0476190476 1514:0.0476190476 1515:0.0476190476 1516:0.0476190476 1517:0.0476190476 1518:0.0476190476 1519:0.0476190476 1520:0.0476190476 1521:0.0476190476 1522:0.0476190476
3.42526548545178 49:0.04 72:0.04 91:0.04 112:0.04 147:0.04 156:0.04 201:0.04 322:0.04 465:0.04 578:0.04 1532:0.04 1533:0.04 1534:0.04 1535:0.04 1536:0.04 1537:0.04 1538:0.04 1539:0.04 1540:0.04 1541:0.04 1542:0.04 1543:0.04 1544:0.04 1545:0.04 1546:0.04
32 25:0.0454545455 86:0.0454545455 287:0.0454545455 304:0.0454545455 305:0.0454545455 322:0.0454545455 481:0.0454545455 568:0.0454545455 800:0.0454545455 932:0.0454545455 999:0.0454545455 1547:0.0454545455 1548:0.0454545455 1549:0.0454545455 1550:0.0454545455 1551:0.0454545455 1552:0.0454545455 1553:0.0454545455 1554:0.0454545455 1555:0.0454545455 1556:0.0454545455 1557:0.0454545455
1.29897960123363 16:0.0769230769 214:0.0769230769 275:0.0769230769 701:0.0769230769 932:0.0769230769 1223:0.0769230769 1558:0.0769230769 1559:0.0769230769 1560:0.0769230769 1561:0.0769230769 1562:0.0769230769 1563:0.0769230769 1564:0.0769230769
10.115837098855 546:0.0769230769 783:0.0769230769 820:0.0769230769 927:0.0769230769 1570:0.0769230769 1571:0.0769230769 1572:0.0769230769 1573:0.0769230769 1574:0.0769230769 1575:0.0769230769 1576:0.0769230769 1577:0.0769230769 1578:0.0769230769
32 4:0.0526315789 54:0.0526315789 213:0.0526315789 225:0.0526315789 291:0.0526315789 335:0.0526315789 1078:0.0526315789 1156:0.0526315789 1464:0.0526315789 1579:0.0526315789 1580:0.0526315789 1581:0.0526315789 1582:0.0526315789 1583:0.0526315789 1584:0.0526315789 1585:0.0526315789 1586:0.0526315789 1587:0.0526315789 1588:0.0526315789
14.9249424714073 1185:0.2 1600:0.2 1601:0.2 1602:0.2 1603:0.2
21.4700432011647 1001:0.1428571429 1608:0.1428571429 1609:0.1428571429 1610:0.1428571429 1611:0.1428571429 1612:0.1428571429 1613:0.1428571429
1.74252839475639 4:0.05 119:0.05 812:0.05 1007:0.05 1047:0.05 1614:0.05 1615:0.05 1616:0.05 1617:0.05 1618:0.05 1619:0.05 1620:0.05 1621:0.05 1622:0.05 1623:0.05 1624:0.05 1625:0.05 1626:0.05 1627:0.05 1628:0.05
6.61799073624961 4:0.0833333333 387:0.0833333333 504:0.0833333333 926:0.0833333333 1629:0.0833333333 1630:0.0833333333 1631:0.0833333333 1632:0.0833333333 1633:0.0833333333 1634:0.0833333333 1635:0.0833333333 1636:0.0833333333
32 25:0.0625 119:0.0625 132:0.0625 347:0.0625 816:0.0625 1064:0.0625 1637:0.0625 1638:0.0625 1639:0.0625 1640:0.0625 1641:0.0625 1642:0.0625 1643:0.0625 1644:0.0625 1645:0.0625 1646:0.0625
1.21185748701247 4:0.0833333333 127:0.0833333333 465:0.0833333333 516:0.0833333333 701:0.0833333333 1223:0.0833333333 1650:0.0833333333 1651:0.0833333333 1652:0.0833333333 1653:0.0833333333 1654:0.0833333333 1655:0.0833333333
1.14094186668958 66:0.1 263:0.1 1029:0.1 1222:0.1 1576:0.1 1667:0.1 1668:0.1 1669:0.1 1670:0.1 1671:0.1
0.488578651810393 86:0.1666666667 99:0.1666666667 275:0.1666666667 346:0.1666666667 816:0.1666666667 1672:0.1666666667
0.285791139608828 4:0.1428571429 123:0.1428571429 200:0.1428571429 420:0.1428571429 1673:0.1428571429 1674:0.1428571429 1675:0.1428571429
32 4:0.04 25:0.04 37:0.04 119:0.04 372:0.04 569:0.04 738:0.04 1120:0.04 1676:0.04 1677:0.04 1678:0.04 1679:0.04 1680:0.04 1681:0.04 1682:0.04 1683:0.04 1684:0.04 1685:0.04 1686:0.04 1687:0.04 1688:0.04 1689:0.04 1690:0.04 1691:0.04 1692:0.04
4.89380874259412 4:0.1428571429 202:0.1428571429 335:0.1428571429 1359:0.1428571429 1527:0.1428571429 1693:0.1428571429 1694:0.1428571429
12.8998312011544 304:0.1666666667 428:0.1666666667 1542:0.1666666667 1695:0.1666666667 1696:0.1666666667 1697:0.1666666667
4.65149564320184 1:0.0833333333 4:0.0833333333 94:0.0833333333 614:0.0833333333 737:0.0833333333 1287:0.0833333333 1698:0.0833333333 1699:0.0833333333 1700:0.0833333333 1701:0.0833333333 1702:0.0833333333 1703:0.0833333333
7.47596068642864 91:0.0769230769 220:0.0769230769 482:0.0769230769 1266:0.0769230769 1721:0.0769230769 1722:0.0769230769 1723:0.0769230769 1724:0.0769230769 1725:0.0769230769 1726:0.0769230769 1727:0.0769230769 1728:0.0769230769 1729:0.0769230769
32 4:0.0625 76:0.0625 116:0.0625 501:0.0625 768:0.0625 780:0.0625 898:0.0625 1048:0.0625 1128:0.0625 1418:0.0625 1756:0.0625 1757:0.0625 1758:0.0625 1759:0.0625 1760:0.0625 1761:0.0625
13.5759062098995 2:0.0625 4:0.0625 40:0.0625 74:0.0625 127:0.0625 778:0.0625 1762:0.0625 1763:0.0625 1764:0.0625 1765:0.0625 1766:0.0625 1767:0.0625 1768:0.0625 1769:0.0625 1770:0.0625 1771:0.0625
29.7796876766992 4:0.0454545455 15:0.0454545455 74:0.0454545455 332:0.0454545455 970:0.0454545455 1021:0.0454545455 1782:0.0454545455 1783:0.0454545455 1784:0.0454545455 1785:0.0454545455 1786:0.0454545455 1787:0.0454545455 1788:0.0454545455 1789:0.0454545455 1790:0.0454545455 1791:0.0454545455 1792:0.0454545455 1793:0.0454545455 1794:0.0454545455 1795:0.0454545455 1796:0.0454545455 1797:0.0454545455
18.9448452033922 4:0.0526315789 16:0.0526315789 25:0.0526315789 37:0.0526315789 91:0.0526315789 291:0.0526315789 1082:0.0526315789 1811:0.0526315789 1812:0.0526315789 1813:0.0526315789 1814:0.0526315789 1815:0.0526315789 1816:0.0526315789 1817:0.0526315789 1818:0.0526315789 1819:0.0526315789 1820:0.0526315789 1821:0.0526315789 1822:0.0526315789
5.77137985712835 4:0.0909090909 27:0.0909090909 1828:0.0909090909 1829:0.0909090909 1830:0.0909090909 1831:0.0909090909 1832:0.0909090909 1833:0.0909090909 1834:0.0909090909 1835:0.0909090909 1836:0.0909090909
0.485498213167935 4:0.0555555556 37:0.0555555556 136:0.0555555556 340:0.0555555556 541:0.0555555556 766:0.0555555556 808:0.0555555556 1309:0.0555555556 1385:0.0555555556 1395:0.0555555556 1842:0.0555555556 1843:0.0555555556 1844:0.0555555556 1845:0.0555555556 1846:0.0555555556 1847:0.0555555556 1848:0.0555555556 1849:0.0555555556
5.76955924982796 91:0.1111111111 116:0.1111111111 1178:0.1111111111 1850:0.1111111111 1851:0.1111111111 1852:0.1111111111 1853:0.1111111111 1854:0.1111111111 1855:0.1111111111
32 70:0.0476190476 91:0.0476190476 99:0.0476190476 225:0.0476190476 448:0.0476190476 590:0.0476190476 614:0.0476190476 631:0.0476190476 1155:0.0476190476 1418:0.0476190476 1856:0.0476190476 1857:0.0476190476 1858:0.0476190476 1859:0.0476190476 1860:0.0476190476 1861:0.0476190476 1862:0.0476190476 1863:0.0476190476 1864:0.0476190476 1865:0.0476190476 1866:0.0476190476
9.38512556747016 4:0.0588235294 222:0.0588235294 232:0.0588235294 244:0.0588235294 347:0.0588235294 382:0.0588235294 396:0.0588235294 476:0.0588235294 487:0.0588235294 1867:0.0588235294 1868:0.0588235294 1869:0.0588235294 1870:0.0588235294 1871:0.0588235294 1872:0.0588235294 1873:0.0588235294 1874:0.0588235294
26.6389830138771 4:0.0769230769 126:0.0769230769 164:0.0769230769 780:0.0769230769 787:0.0769230769 987:0.0769230769 1333:0.0769230769 1359:0.0769230769 1479:0.0769230769 1876:0.0769230769 1877:0.0769230769 1878:0.0769230769 1879:0.0769230769
12.9590521773685 1:0.0666666667 4:0.0666666667 135:0.0666666667 359:0.0666666667 627:0.0666666667 629:0.0666666667 1880:0.0666666667 1881:0.0666666667 1882:0.0666666667 1883:0.0666666667 1884:0.0666666667 1885:0.0666666667 1886:0.0666666667 1887:0.0666666667 1888:0.0666666667
3.38317892545206 1:0.0833333333 27:0.0833333333 119:0.0833333333 135:0.0833333333 139:0.0833333333 243:0.0833333333 368:0.0833333333 414:0.0833333333 461:0.0833333333 1889:0.0833333333 1890:0.0833333333 1891:0.0833333333
13.6227323478876 3:0.0476190476 99:0.0476190476 128:0.0476190476 231:0.0476190476 275:0.0476190476 289:0.0476190476 490:0.0476190476 531:0.0476190476 590:0.0476190476 630:0.0476190476 701:0.0476190476 750:0.0476190476 753:0.0476190476 1576:0.0476190476 1892:0.0476190476 1893:0.0476190476 1894:0.0476190476 1895:0.0476190476 1896:0.0476190476 1897:0.0476190476 1898:0.0476190476
32 49:0.0526315789 91:0.0526315789 99:0.0526315789 121:0.0526315789 162:0.0526315789 172:0.0526315789 248:0.0526315789 388:0.0526315789 853:0.0526315789 1124:0.0526315789 1318:0.0526315789 1607:0.0526315789 1899:0.0526315789 1900:0.0526315789 1901:0.0526315789 1902:0.0526315789 1903:0.0526315789 1904:0.0526315789 1905:0.0526315789
14.5078940801069 4:0.125 16:0.125 482:0.125 1658:0.125 1920:0.125 1921:0.125 1922:0.125 1923:0.125
32 4:0.05 322:0.05 901:0.05 1928:0.05 1929:0.05 1930:0.05 1931:0.05 1932:0.05 1933:0.05 1934:0.05 1935:0.05 1936:0.05 1937:0.05 1938:0.05 1939:0.05 1940:0.05 1941:0.05 1942:0.05 1943:0.05 1944:0.05
1.84818260596709 232:0.1 584:0.1 1780:0.1 1945:0.1 1946:0.1 1947:0.1 1948:0.1 1949:0.1 1950:0.1 1951:0.1
30.7315002998918 119:0.0769230769 541:0.0769230769 590:0.0769230769 629:0.0769230769 722:0.0769230769 1474:0.0769230769 1952:0.0769230769 1953:0.0769230769 1954:0.0769230769 1955:0.0769230769 1956:0.0769230769 1957:0.0769230769 1958:0.0769230769
32 16:0.0555555556 116:0.0555555556 119:0.0555555556 182:0.0555555556 222:0.0555555556 608:0.0555555556 1556:0.0555555556 1961:0.0555555556 1962:0.0555555556 1963:0.0555555556 1964:0.0555555556 1965:0.0555555556 1966:0.0555555556 1967:0.0555555556 1968:0.0555555556 1969:0.0555555556 1970:0.0555555556 1971:0.0555555556
1.51583905328232 127:0.125 1034:0.125 1101:0.125 1762:0.125 1978:0.125 1979:0.125 1980:0.125 1981:0.125
24.1463403748451 194:0.0769230769 310:0.0769230769 329:0.0769230769 1257:0.0769230769 1742:0.0769230769 1996:0.0769230769 1997:0.0769230769 1998:0.0769230769 1999:0.0769230769 2000:0.0769230769 2001:0.0769230769 2002:0.0769230769 2003:0.0769230769
8.45283664946595 4:0.0769230769 228:0.0769230769 276:0.0769230769 888:0.0769230769 1017:0.0769230769 1397:0.0769230769 2034:0.0769230769 2035:0.0769230769 2036:0.0769230769 2037:0.0769230769 2038:0.0769230769 2039:0.0769230769 2040:0.0769230769
32 4:0.0909090909 119:0.0909090909 270:0.0909090909 382:0.0909090909 573:0.0909090909 1052:0.0909090909 1146:0.0909090909 2041:0.0909090909 2042:0.0909090909 2043:0.0909090909 2044:0.0909090909
22.7442168357799 4:0.0625 248:0.0625 368:0.0625 481:0.0625 515:0.0625 780:0.0625 883:0.0625 1029:0.0625 1985:0.0625 2054:0.0625 2055:0.0625 2056:0.0625 2057:0.0625 2058:0.0625 2059:0.0625 2060:0.0625
6.14306464500538 74:0.0769230769 443:0.0769230769 519:0.0769230769 1036:0.0769230769 2068:0.0769230769 2069:0.0769230769 2070:0.0769230769 2071:0.0769230769 2072:0.0769230769 2073:0.0769230769 2074:0.0769230769 2075:0.0769230769 2076:0.0769230769
6.21639582071063 75:0.1 121:0.1 878:0.1 1006:0.1 1537:0.1 1698:0.1 2077:0.1 2078:0.1 2079:0.1 2080:0.1
13.9994973013826 116:0.0769230769 252:0.0769230769 1214:0.0769230769 2081:0.0769230769 2082:0.0769230769 2083:0.0769230769 2084:0.0769230769 2085:0.0769230769 2086:0.0769230769 2087:0.0769230769 2088:0.0769230769 2089:0.0769230769 2090:0.0769230769
18.9279175298824 414:0.0454545455 481:0.0454545455 504:0.0454545455 542:0.0454545455 629:0.0454545455 732:0.0454545455 778:0.0454545455 932:0.0454545455 1369:0.0454545455 1982:0.0454545455 2091:0.0454545455 2092:0.0454545455 2093:0.0454545455 2094:0.0454545455 2095:0.0454545455 2096:0.0454545455 2097:0.0454545455 2098:0.0454545455 2099:0.0454545455 2100:0.0454545455 2101:0.0454545455 2102:0.0454545455
21.934792991946 36:0.0526315789 172:0.0526315789 210:0.0526315789 481:0.0526315789 525:0.0526315789 2111:0.0526315789 2112:0.0526315789 2113:0.0526315789 2114:0.0526315789 2115:0.0526315789 2116:0.0526315789 2117:0.0526315789 2118:0.0526315789 2119:0.0526315789 2120:0.0526315789 2121:0.0526315789 2122:0.0526315789 2123:0.0526315789 2124:0.0526315789
19.4338756472907 16:0.0666666667 50:0.0666666667 75:0.0666666667 156:0.0666666667 204:0.0666666667 286:0.0666666667 573:0.0666666667 1326:0.0666666667 2125:0.0666666667 2126:0.0666666667 2127:0.0666666667 2128:0.0666666667 2129:0.0666666667 2130:0.0666666667 2131:0.0666666667
18.0633838204922 4:0.0625 15:0.0625 119:0.0625 161:0.0625 232:0.0625 717:0.0625 2143:0.0625 2144:0.0625 2145:0.0625 2146:0.0625 2147:0.0625 2148:0.0625 2149:0.0625 2150:0.0625 2151:0.0625 2152:0.0625
32 15:0.0434782609 16:0.0434782609 40:0.0434782609 225:0.0434782609 272:0.0434782609 487:0.0434782609 567:0.0434782609 625:0.0434782609 787:0.0434782609 1243:0.0434782609 1315:0.0434782609 1798:0.0434782609 2153:0.0434782609 2154:0.0434782609 2155:0.0434782609 2156:0.0434782609 2157:0.0434782609 2158:0.0434782609 2159:0.0434782609 2160:0.0434782609 2161:0.0434782609 2162:0.0434782609 2163:0.0434782609
12.9083548082847 4:0.125 252:0.125 558:0.125 2164:0.125 2165:0.125 2166:0.125 2167:0.125 2168:0.125
11.655317449971 4:0.0588235294 83:0.0588235294 99:0.0588235294 318:0.0588235294 356:0.0588235294 487:0.0588235294 1257:0.0588235294 2169:0.0588235294 2170:0.0588235294 2171:0.0588235294 2172:0.0588235294 2173:0.0588235294 2174:0.0588235294 2175:0.0588235294 2176:0.0588235294 2177:0.0588235294 2178:0.0588235294
3.55602146556854 4:0.1 127:0.1 207:0.1 480:0.1 1926:0.1 2179:0.1 2180:0.1 2181:0.1 2182:0.1 2183:0.1
32 15:0.05 31:0.05 112:0.05 337:0.05 381:0.05 465:0.05 596:0.05 777:0.05 780:0.05 1391:0.05 1537:0.05 2184:0.05 2185:0.05 2186:0.05 2187:0.05 2188:0.05 2189:0.05 2190:0.05 2191:0.05 2192:0.05
30.3256720085369 4:0.0625 275:0.0625 554:0.0625 801:0.0625 834:0.0625 1262:0.0625 1877:0.0625 2193:0.0625 2194:0.0625 2195:0.0625 2196:0.0625 2197:0.0625 2198:0.0625 2199:0.0625 2200:0.0625 2201:0.0625
10.7095665911674 289:0.1111111111 332:0.1111111111 1214:0.1111111111 2202:0.1111111111 2203:0.1111111111 2204:0.1111111111 2205:0.1111111111 2206:0.1111111111 2207:0.1111111111
12.6948955871419 4:0.0588235294 25:0.0588235294 291:0.0588235294 322:0.0588235294 540:0.0588235294 1152:0.0588235294 1247:0.0588235294 1389:0.0588235294 1414:0.0588235294 2208:0.0588235294 2209:0.0588235294 2210:0.0588235294 2211:0.0588235294 2212:0.0588235294 2213:0.0588235294 2214:0.0588235294 2215:0.0588235294
4.23249836314754 73:0.125 356:0.125 2216:0.125 2217:0.125 2218:0.125 2219:0.125 2220:0.125 2221:0.125
13.4107717933252 4:0.0526315789 15:0.0526315789 160:0.0526315789 232:0.0526315789 625:0.0526315789 1387:0.0526315789 1868:0.0526315789 1972:0.0526315789 2203:0.0526315789 2222:0.0526315789 2223:0.0526315789 2224:0.0526315789 2225:0.0526315789 2226:0.0526315789 2227:0.0526315789 2228:0.0526315789 2229:0.0526315789 2230:0.0526315789 2231:0.0526315789
14.3614423655578 75:0.0769230769 172:0.0769230769 183:0.0769230769 243:0.0769230769 2232:0.0769230769 2233:0.0769230769 2234:0.0769230769 2235:0.0769230769 2236:0.0769230769 2237:0.0769230769 2238:0.0769230769 2239:0.0769230769 2240:0.0769230769
1.22628828751704 4:0.1428571429 356:0.1428571429 2251:0.1428571429 2252:0.1428571429 2253:0.1428571429 2254:0.1428571429 2255:0.1428571429
17.4001889315847 74:0.1111111111 2137:0.1111111111 2258:0.1111111111 2259:0.1111111111 2260:0.1111111111 2261:0.1111111111 2262:0.1111111111 2263:0.1111111111 2264:0.1111111111
19.2084029716608 4:0.0588235294 119:0.0588235294 139:0.0588235294 717:0.0588235294 910:0.0588235294 1972:0.0588235294 2265:0.0588235294 2266:0.0588235294 2267:0.0588235294 2268:0.0588235294 2269:0.0588235294 2270:0.0588235294 2271:0.0588235294 2272:0.0588235294 2273:0.0588235294 2274:0.0588235294 2275:0.0588235294
32 16:0.1 220:0.1 272:0.1 573:0.1 2121:0.1 2229:0.1 2276:0.1 2277:0.1 2278:0.1 2279:0.1
5.58558326850825 4:0.0625 119:0.0625 244:0.0625 429:0.0625 682:0.0625 687:0.0625 2280:0.0625 2281:0.0625 2282:0.0625 2283:0.0625 2284:0.0625 2285:0.0625 2286:0.0625 2287:0.0625 2288:0.0625 2289:0.0625
8.31165253660344 4:0.0555555556 54:0.0555555556 135:0.0555555556 243:0.0555555556 329:0.0555555556 360:0.0555555556 593:0.0555555556 1147:0.0555555556 1202:0.0555555556 2061:0.0555555556 2116:0.0555555556 2290:0.0555555556 2291:0.0555555556 2292:0.0555555556 2293:0.0555555556 2294:0.0555555556 2295:0.0555555556 2296:0.0555555556
32 15:0.0666666667 75:0.0666666667 76:0.0666666667 974:0.0666666667 1253:0.0666666667 1757:0.0666666667 2309:0.0666666667 2310:0.0666666667 2311:0.0666666667 2312:0.0666666667 2313:0.0666666667 2314:0.0666666667 2315:0.0666666667 2316:0.0666666667 2317:0.0666666667
32 16:0.0454545455 25:0.0454545455 36:0.0454545455 83:0.0454545455 111:0.0454545455 112:0.0454545455 272:0.0454545455 301:0.0454545455 531:0.0454545455 686:0.0454545455 999:0.0454545455 1267:0.0454545455 2330:0.0454545455 2331:0.0454545455 2332:0.0454545455 2333:0.0454545455 2334:0.0454545455 2335:0.0454545455 2336:0.0454545455 2337:0.0454545455 2338:0.0454545455 2339:0.0454545455
4.00499005970556 479:0.1111111111 1545:0.1111111111 2233:0.1111111111 2346:0.1111111111 2347:0.1111111111 2348:0.1111111111 2349:0.1111111111 2350:0.1111111111 2351:0.1111111111
11.7206785543555 116:0.0769230769 256:0.0769230769 362:0.0769230769 481:0.0769230769 730:0.0769230769 1064:0.0769230769 1593:0.0769230769 1595:0.0769230769 2124:0.0769230769 2352:0.0769230769 2353:0.0769230769 2354:0.0769230769 2355:0.0769230769
25.6910245849757 6:0.0769230769 116:0.0769230769 1113:0.0769230769 2291:0.0769230769 2365:0.0769230769 2366:0.0769230769 2367:0.0769230769 2368:0.0769230769 2369:0.0769230769 2370:0.0769230769 2371:0.0769230769 2372:0.0769230769 2373:0.0769230769
6.01413481558128 4:0.0625 104:0.0625 214:0.0625 481:0.0625 930:0.0625 1595:0.0625 2162:0.0625 2374:0.0625 2375:0.0625 2376:0.0625 2377:0.0625 2378:0.0625 2379:0.0625 2380:0.0625 2381:0.0625 2382:0.0625
32 1:0.0833333333 4:0.0833333333 141:0.0833333333 1072:0.0833333333 1158:0.0833333333 1208:0.0833333333 1295:0.0833333333 2008:0.0833333333 2383:0.0833333333 2384:0.0833333333 2385:0.0833333333 2386:0.0833333333
27.4770317613741 4:0.0454545455 8:0.0454545455 15:0.0454545455 82:0.0454545455 194:0.0454545455 252:0.0454545455 517:0.0454545455 519:0.0454545455 717:0.0454545455 722:0.0454545455 729:0.0454545455 865:0.0454545455 1204:0.0454545455 1268:0.0454545455 1580:0.0454545455 1766:0.0454545455 2271:0.0454545455 2403:0.0454545455 2404:0.0454545455 2405:0.0454545455 2406:0.0454545455 2407:0.0454545455
12.853498628776 4:0.0833333333 25:0.0833333333 91:0.0833333333 256:0.0833333333 568:0.0833333333 800:0.0833333333 831:0.0833333333 2408:0.0833333333 2409:0.0833333333 2410:0.0833333333 2411:0.0833333333 2412:0.0833333333
21.1106786517604 4:0.0625 56:0.0625 265:0.0625 356:0.0625 625:0.0625 732:0.0625 1348:0.0625 2096:0.0625 2330:0.0625 2360:0.0625 2413:0.0625 2414:0.0625 2415:0.0625 2416:0.0625 2417:0.0625 2418:0.0625
5.96472799402886 16:0.0526315789 82:0.0526315789 172:0.0526315789 213:0.0526315789 291:0.0526315789 352:0.0526315789 353:0.0526315789 481:0.0526315789 498:0.0526315789 519:0.0526315789 686:0.0526315789 769:0.0526315789 782:0.0526315789 1296:0.0526315789 2088:0.0526315789 2419:0.0526315789 2420:0.0526315789 2421:0.0526315789 2422:0.0526315789
5.53051870369891 91:0.125 661:0.125 1000:0.125 2097:0.125 2423:0.125 2424:0.125 2425:0.125 2426:0.125
32 4:0.0588235294 172:0.0588235294 256:0.0588235294 322:0.0588235294 682:0.0588235294 830:0.0588235294 884:0.0588235294 988:0.0588235294 1177:0.0588235294 1275:0.0588235294 1320:0.0588235294 2396:0.0588235294 2427:0.0588235294 2428:0.0588235294 2429:0.0588235294 2430:0.0588235294 2431:0.0588235294
32 4:0.0833333333 256:0.0833333333 475:0.0833333333 502:0.0833333333 571:0.0833333333 631:0.0833333333 1334:0.0833333333 2435:0.0833333333 2436:0.0833333333 2437:0.0833333333 2438:0.0833333333 2439:0.0833333333
32 4:0.0588235294 15:0.0588235294 75:0.0588235294 789:0.0588235294 999:0.0588235294 2453:0.0588235294 2454:0.0588235294 2455:0.0588235294 2456:0.0588235294 2457:0.0588235294 2458:0.0588235294 2459:0.0588235294 2460:0.0588235294 2461:0.0588235294 2462:0.0588235294 2463:0.0588235294 2464:0.0588235294
9.19307251415746 60:0.05 69:0.05 83:0.05 91:0.05 275:0.05 304:0.05 511:0.05 609:0.05 722:0.05 932:0.05 1052:0.05 2321:0.05 2465:0.05 2466:0.05 2467:0.05 2468:0.05 2469:0.05 2470:0.05 2471:0.05 2472:0.05
13.6462101699363 4:0.0416666667 37:0.0416666667 112:0.0416666667 127:0.0416666667 318:0.0416666667 533:0.0416666667 579:0.0416666667 816:0.0416666667 1059:0.0416666667 1187:0.0416666667 2272:0.0416666667 2396:0.0416666667 2473:0.0416666667 2474:0.0416666667 2475:0.0416666667 2476:0.0416666667 2477:0.0416666667 2478:0.0416666667 2479:0.0416666667 2480:0.0416666667 2481:0.0416666667 2482:0.0416666667 2483:0.0416666667 2484:0.0416666667
32 119:0.0714285714 329:0.0714285714 577:0.0714285714 672:0.0714285714 715:0.0714285714 1212:0.0714285714 2121:0.0714285714 2485:0.0714285714 2486:0.0714285714 2487:0.0714285714 2488:0.0714285714 2489:0.0714285714 2490:0.0714285714 2491:0.0714285714
14.7747231580141 4:0.0714285714 91:0.0714285714 475:0.0714285714 1143:0.0714285714 1155:0.0714285714 1856:0.0714285714 2500:0.0714285714 2501:0.0714285714 2502:0.0714285714 2503:0.0714285714 2504:0.0714285714 2505:0.0714285714 2506:0.0714285714 2507:0.0714285714
2.21399042651001 4:0.125 399:0.125 1155:0.125 2508:0.125 2509:0.125 2510:0.125 2511:0.125 2512:0.125
15.10090157056 4:0.1111111111 1155:0.1111111111 1839:0.1111111111 2513:0.1111111111 2514:0.1111111111 2515:0.1111111111 2516:0.1111111111 2517:0.1111111111 2518:0.1111111111
23.1365331827898 4:0.0714285714 40:0.0714285714 75:0.0714285714 1339:0.0714285714 2124:0.0714285714 2395:0.0714285714 2396:0.0714285714 2526:0.0714285714 2527:0.0714285714 2528:0.0714285714 2529:0.0714285714 2530:0.0714285714 2531:0.0714285714 2532:0.0714285714
12.5902161630092 4:0.0666666667 116:0.0666666667 780:0.0666666667 1292:0.0666666667 1804:0.0666666667 2533:0.0666666667 2534:0.0666666667 2535:0.0666666667 2536:0.0666666667 2537:0.0666666667 2538:0.0666666667 2539:0.0666666667 2540:0.0666666667 2541:0.0666666667 2542:0.0666666667
13.4826370851758 15:0.0476190476 19:0.0476190476 49:0.0476190476 69:0.0476190476 91:0.0476190476 252:0.0476190476 265:0.0476190476 448:0.0476190476 596:0.0476190476 629:0.0476190476 800:0.0476190476 1034:0.0476190476 1076:0.0476190476 1946:0.0476190476 2246:0.0476190476 2456:0.0476190476 2543:0.0476190476 2544:0.0476190476 2545:0.0476190476 2546:0.0476190476 2547:0.0476190476
2.16374063156207 4:0.0714285714 15:0.0714285714 19:0.0714285714 20:0.0714285714 37:0.0714285714 335:0.0714285714 454:0.0714285714 901:0.0714285714 1706:0.0714285714 2363:0.0714285714 2560:0.0714285714 2561:0.0714285714 2562:0.0714285714 2563:0.0714285714
0.808752258092217 381:0.0833333333 490:0.0833333333 684:0.0833333333 2567:0.0833333333 2568:0.0833333333 2569:0.0833333333 2570:0.0833333333 2571:0.0833333333 2572:0.0833333333 2573:0.0833333333 2574:0.0833333333 2575:0.0833333333
14.0960751258805 490:0.125 908:0.125 1901:0.125 1963:0.125 2267:0.125 2576:0.125 2577:0.125 2578:0.125
9.060652022386 91:0.0588235294 116:0.0588235294 214:0.0588235294 256:0.0588235294 319:0.0588235294 964:0.0588235294 2154:0.0588235294 2579:0.0588235294 2580:0.0588235294 2581:0.0588235294 2582:0.0588235294 2583:0.0588235294 2584:0.0588235294 2585:0.0588235294 2586:0.0588235294 2587:0.0588235294 2588:0.0588235294
23.6162167919322 4:0.0714285714 359:0.0714285714 475:0.0714285714 730:0.0714285714 2442:0.0714285714 2609:0.0714285714 2610:0.0714285714 2611:0.0714285714 2612:0.0714285714 2613:0.0714285714 2614:0.0714285714 2615:0.0714285714 2616:0.0714285714 2617:0.0714285714
7.06481913374088 147:0.04 974:0.04 2624:0.04 2625:0.04 2626:0.04 2627:0.04 2628:0.04 2629:0.04 2630:0.04 2631:0.04 2632:0.04 2633:0.04 2634:0.04 2635:0.04 2636:0.04 2637:0.04 2638:0.04 2639:0.04 2640:0.04 2641:0.04 2642:0.04 2643:0.04 2644:0.04 2645:0.04 2646:0.04
28.2396684861926 4:0.1 94:0.1 1637:0.1 1972:0.1 2449:0.1 2647:0.1 2648:0.1 2649:0.1 2650:0.1 2651:0.1
32 25:0.0555555556 232:0.0555555556 265:0.0555555556 384:0.0555555556 542:0.0555555556 646:0.0555555556 686:0.0555555556 1162:0.0555555556 1485:0.0555555556 2049:0.0555555556 2661:0.0555555556 2662:0.0555555556 2663:0.0555555556 2664:0.0555555556 2665:0.0555555556 2666:0.0555555556 2667:0.0555555556 2668:0.0555555556
2.09422844892267 4:0.0666666667 16:0.0666666667 569:0.0666666667 634:0.0666666667 901:0.0666666667 1034:0.0666666667 1609:0.0666666667 1658:0.0666666667 2467:0.0666666667 2682:0.0666666667 2683:0.0666666667 2684:0.0666666667 2685:0.0666666667 2686:0.0666666667 2687:0.0666666667
16.5381472833148 91:0.05 421:0.05 448:0.05 472:0.05 973:0.05 998:0.05 1334:0.05 1620:0.05 2688:0.05 2689:0.05 2690:0.05 2691:0.05 2692:0.05 2693:0.05 2694:0.05 2695:0.05 2696:0.05 2697:0.05 2698:0.05 2699:0.05
32 4:0.0416666667 304:0.0416666667 590:0.0416666667 682:0.0416666667 1024:0.0416666667 1044:0.0416666667 1058:0.0416666667 1711:0.0416666667 1895:0.0416666667 2300:0.0416666667 2704:0.0416666667 2705:0.0416666667 2706:0.0416666667 2707:0.0416666667 2708:0.0416666667 2709:0.0416666667 2710:0.0416666667 2711:0.0416666667 2712:0.0416666667 2713:0.0416666667 2714:0.0416666667 2715:0.0416666667 2716:0.0416666667 2717:0.0416666667
15.2872767471224 424:0.1666666667 584:0.1666666667 701:0.1666666667 1655:0.1666666667 2718:0.1666666667 2719:0.1666666667
6.56157650737504 4:0.0666666667 75:0.0666666667 127:0.0666666667 271:0.0666666667 1313:0.0666666667 2433:0.0666666667 2442:0.0666666667 2735:0.0666666667 2736:0.0666666667 2737:0.0666666667 2738:0.0666666667 2739:0.0666666667 2740:0.0666666667 2741:0.0666666667 2742:0.0666666667
32 4:0.0476190476 86:0.0476190476 119:0.0476190476 318:0.0476190476 435:0.0476190476 687:0.0476190476 1276:0.0476190476 2406:0.0476190476 2744:0.0476190476 2745:0.0476190476 2746:0.0476190476 2747:0.0476190476 2748:0.0476190476 2749:0.0476190476 2750:0.0476190476 2751:0.0476190476 2752:0.0476190476 2753:0.0476190476 2754:0.0476190476 2755:0.0476190476 2756:0.0476190476
12.7587782096052 4:0.0625 127:0.0625 258:0.0625 275:0.0625 425:0.0625 465:0.0625 527:0.0625 590:0.0625 632:0.0625 686:0.0625 2098:0.0625 2300:0.0625 2757:0.0625 2758:0.0625 2759:0.0625 2760:0.0625
26.3749633570558 4:0.0434782609 62:0.0434782609 69:0.0434782609 83:0.0434782609 116:0.0434782609 210:0.0434782609 421:0.0434782609 649:0.0434782609 999:0.0434782609 1307:0.0434782609 1479:0.0434782609 2108:0.0434782609 2120:0.0434782609 2761:0.0434782609 2762:0.0434782609 2763:0.0434782609 2764:0.0434782609 2765:0.0434782609 2766:0.0434782609 2767:0.0434782609 2768:0.0434782609 2769:0.0434782609 2770:0.0434782609
20.286588175981 48:0.1428571429 119:0.1428571429 209:0.1428571429 592:0.1428571429 1529:0.1428571429 2778:0.1428571429 2779:0.1428571429
5.40607212709847 4:0.2 127:0.2 2790:0.2 2791:0.2 2792:0.2
32 4:0.1111111111 99:0.1111111111 337:0.1111111111 487:0.1111111111 722:0.1111111111 1072:0.1111111111 2286:0.1111111111 2503:0.1111111111 2805:0.1111111111
3.23155197823849 15:0.04 36:0.04 119:0.04 127:0.04 132:0.04 161:0.04 481:0.04 609:0.04 880:0.04 1979:0.04 2497:0.04 2712:0.04 2811:0.04 2812:0.04 2813:0.04 2814:0.04 2815:0.04 2816:0.04 2817:0.04 2818:0.04 2819:0.04 2820:0.04 2821:0.04 2822:0.04 2823:0.04
32 4:0.04 19:0.04 123:0.04 220:0.04 322:0.04 482:0.04 487:0.04 502:0.04 579:0.04 1125:0.04 1798:0.04 1877:0.04 2540:0.04 2733:0.04 2825:0.04 2826:0.04 2827:0.04 2828:0.04 2829:0.04 2830:0.04 2831:0.04 2832:0.04 2833:0.04 2834:0.04 2835:0.04
20.1032588284838 4:0.0526315789 12:0.0526315789 37:0.0526315789 239:0.0526315789 275:0.0526315789 337:0.0526315789 340:0.0526315789 368:0.0526315789 730:0.0526315789 732:0.0526315789 1217:0.0526315789 1474:0.0526315789 2841:0.0526315789 2842:0.0526315789 2843:0.0526315789 2844:0.0526315789 2845:0.0526315789 2846:0.0526315789 2847:0.0526315789
32 12:0.0555555556 83:0.0555555556 538:0.0555555556 598:0.0555555556 694:0.0555555556 1223:0.0555555556 1566:0.0555555556 2855:0.0555555556 2856:0.0555555556 2857:0.0555555556 2858:0.0555555556 2859:0.0555555556 2860:0.0555555556 2861:0.0555555556 2862:0.0555555556 2863:0.0555555556 2864:0.0555555556 2865:0.0555555556
16.3748175629861 4:0.1111111111 382:0.1111111111 390:0.1111111111 515:0.1111111111 590:0.1111111111 1063:0.1111111111 2866:0.1111111111 2867:0.1111111111 2868:0.1111111111
12.7046285420196 1:0.1428571429 4:0.1428571429 231:0.1428571429 1306:0.1428571429 2874:0.1428571429 2875:0.1428571429 2876:0.1428571429
0.172515102135902 116:0.0714285714 172:0.0714285714 258:0.0714285714 722:0.0714285714 1141:0.0714285714 1149:0.0714285714 1377:0.0714285714 1688:0.0714285714 2877:0.0714285714 2878:0.0714285714 2879:0.0714285714 2880:0.0714285714 2881:0.0714285714 2882:0.0714285714
9.36790229903296 48:0.0833333333 127:0.0833333333 160:0.0833333333 243:0.0833333333 502:0.0833333333 744:0.0833333333 983:0.0833333333 1078:0.0833333333 2308:0.0833333333 2761:0.0833333333 2883:0.0833333333 2884:0.0833333333
24.2772667026351 4:0.05 119:0.05 135:0.05 782:0.05 808:0.05 2704:0.05 2809:0.05 2891:0.05 2892:0.05 2893:0.05 2894:0.05 2895:0.05 2896:0.05 2897:0.05 2898:0.05 2899:0.05 2900:0.05 2901:0.05 2902:0.05 2903:0.05
1.87607655903214 73:0.1666666667 75:0.1666666667 584:0.1666666667 2703:0.1666666667 2904:0.1666666667 2905:0.1666666667
12.2214538577286 81:0.1111111111 91:0.1111111111 247:0.1111111111 1371:0.1111111111 2912:0.1111111111 2913:0.1111111111 2914:0.1111111111 2915:0.1111111111 2916:0.1111111111
24.9198127371387 4:0.0714285714 36:0.0714285714 65:0.0714285714 215:0.0714285714 454:0.0714285714 970:0.0714285714 992:0.0714285714 2109:0.0714285714 2921:0.0714285714 2922:0.0714285714 2923:0.0714285714 2924:0.0714285714 2925:0.0714285714 2926:0.0714285714
23.4835861873348 4:0.0476190476 15:0.0476190476 468:0.0476190476 527:0.0476190476 873:0.0476190476 1274:0.0476190476 2052:0.0476190476 2845:0.0476190476 2927:0.0476190476 2928:0.0476190476 2929:0.0476190476 2930:0.0476190476 2931:0.0476190476 2932:0.0476190476 2933:0.0476190476 2934:0.0476190476 2935:0.0476190476 2936:0.0476190476 2937:0.0476190476 2938:0.0476190476 2939:0.0476190476
1.32901779183566 4:0.0833333333 127:0.0833333333 730:0.0833333333 1034:0.0833333333 1359:0.0833333333 1938:0.0833333333 2230:0.0833333333 2949:0.0833333333 2950:0.0833333333 2951:0.0833333333 2952:0.0833333333 2953:0.0833333333
4.97522174297204 4:0.0909090909 57:0.0909090909 318:0.0909090909 635:0.0909090909 990:0.0909090909 1143:0.0909090909 2958:0.0909090909 2959:0.0909090909 2960:0.0909090909 2961:0.0909090909 2962:0.0909090909
4.20614799395177 4:0.0666666667 172:0.0666666667 946:0.0666666667 1537:0.0666666667 2975:0.0666666667 2978:0.0666666667 2979:0.0666666667 2980:0.0666666667 2981:0.0666666667 2982:0.0666666667 2983:0.0666666667 2984:0.0666666667 2985:0.0666666667 2986:0.0666666667 2987:0.0666666667
5.3953595512243 218:0.0714285714 222:0.0714285714 291:0.0714285714 310:0.0714285714 324:0.0714285714 1103:0.0714285714 1127:0.0714285714 1174:0.0714285714 2816:0.0714285714 3001:0.0714285714 3002:0.0714285714 3003:0.0714285714 3004:0.0714285714 3005:0.0714285714
32 4:0.0588235294 6:0.0588235294 116:0.0588235294 177:0.0588235294 597:0.0588235294 987:0.0588235294 1839:0.0588235294 1841:0.0588235294 2244:0.0588235294 3014:0.0588235294 3015:0.0588235294 3016:0.0588235294 3017:0.0588235294 3018:0.0588235294 3019:0.0588235294 3020:0.0588235294 3021:0.0588235294
26.9392280230882 36:0.0666666667 50:0.0666666667 69:0.0666666667 119:0.0666666667 1698:0.0666666667 2052:0.0666666667 2203:0.0666666667 2737:0.0666666667 3026:0.0666666667 3027:0.0666666667 3028:0.0666666667 3029:0.0666666667 3030:0.0666666667 3031:0.0666666667 3032:0.0666666667
12.7325544791545 4:0.0588235294 116:0.0588235294 722:0.0588235294 959:0.0588235294 1036:0.0588235294 2023:0.0588235294 2205:0.0588235294 3044:0.0588235294 3045:0.0588235294 3046:0.0588235294 3047:0.0588235294 3048:0.0588235294 3049:0.0588235294 3050:0.0588235294 3051:0.0588235294 3052:0.0588235294 3053:0.0588235294
7.89362169292593 48:0.0833333333 182:0.0833333333 232:0.0833333333 583:0.0833333333 1977:0.0833333333 3012:0.0833333333 3054:0.0833333333 3055:0.0833333333 3056:0.0833333333 3057:0.0833333333 3058:0.0833333333 3059:0.0833333333
6.93942031644178 36:0.0714285714 119:0.0714285714 289:0.0714285714 437:0.0714285714 481:0.0714285714 873:0.0714285714 1019:0.0714285714 2655:0.0714285714 3060:0.0714285714 3061:0.0714285714 3062:0.0714285714 3063:0.0714285714 3064:0.0714285714 3065:0.0714285714
4.19313487742646 4:0.0769230769 62:0.0769230769 300:0.0769230769 321:0.0769230769 647:0.0769230769 816:0.0769230769 1113:0.0769230769 3066:0.0769230769 3067:0.0769230769 3068:0.0769230769 3069:0.0769230769 3070:0.0769230769 3071:0.0769230769
11.5896395965975 4:0.0909090909 573:0.0909090909 594:0.0909090909 1007:0.0909090909 2203:0.0909090909 2947:0.0909090909 3072:0.0909090909 3073:0.0909090909 3074:0.0909090909 3075:0.0909090909 3076:0.0909090909
30.7734962219382 4:0.0909090909 65:0.0909090909 83:0.0909090909 368:0.0909090909 454:0.0909090909 751:0.0909090909 763:0.0909090909 1945:0.0909090909 2922:0.0909090909 3100:0.0909090909 3101:0.0909090909
26.507151998539 4:0.0476190476 36:0.0476190476 37:0.0476190476 112:0.0476190476 194:0.0476190476 584:0.0476190476 608:0.0476190476 799:0.0476190476 1015:0.0476190476 1034:0.0476190476 1095:0.0476190476 1762:0.0476190476 2655:0.0476190476 3114:0.0476190476 3115:0.0476190476 3116:0.0476190476 3117:0.0476190476 3118:0.0476190476 3119:0.0476190476 3120:0.0476190476 3121:0.0476190476
27.7267167854368 569:0.0833333333 2351:0.0833333333 3122:0.0833333333 3123:0.0833333333 3124:0.0833333333 3125:0.0833333333 3126:0.0833333333 3127:0.0833333333 3128:0.0833333333 3129:0.0833333333 3130:0.0833333333 3131:0.0833333333
6.93209836044169 6:0.0909090909 40:0.0909090909 48:0.0909090909 122:0.0909090909 161:0.0909090909 736:0.0909090909 1101:0.0909090909 1800:0.0909090909 2116:0.0909090909 3144:0.0909090909 3145:0.0909090909
7.82549366640053 4:0.0714285714 48:0.0714285714 91:0.0714285714 119:0.0714285714 430:0.0714285714 472:0.0714285714 502:0.0714285714 2674:0.0714285714 3146:0.0714285714 3147:0.0714285714 3148:0.0714285714 3149:0.0714285714 3150:0.0714285714 3151:0.0714285714
1.8398415541202 16:0.0625 19:0.0625 50:0.0625 75:0.0625 175:0.0625 229:0.0625 1254:0.0625 3160:0.0625 3161:0.0625 3162:0.0625 3163:0.0625 3164:0.0625 3165:0.0625 3166:0.0625 3167:0.0625 3168:0.0625
29.7272308988463 4:0.0526315789 65:0.0526315789 91:0.0526315789 116:0.0526315789 207:0.0526315789 275:0.0526315789 287:0.0526315789 318:0.0526315789 964:0.0526315789 1036:0.0526315789 1731:0.0526315789 1972:0.0526315789 2046:0.0526315789 2271:0.0526315789 3169:0.0526315789 3170:0.0526315789 3171:0.0526315789 3172:0.0526315789 3173:0.0526315789
6.84317116351022 25:0.1666666667 879:0.1666666667 2496:0.1666666667 3174:0.1666666667 3175:0.1666666667 3176:0.1666666667
4.69793591032522 75:0.0666666667 116:0.0666666667 123:0.0666666667 381:0.0666666667 482:0.0666666667 787:0.0666666667 837:0.0666666667 963:0.0666666667 1924:0.0666666667 1930:0.0666666667 1946:0.0666666667 2485:0.0666666667 3219:0.0666666667 3220:0.0666666667 3221:0.0666666667
32 4:0.0714285714 19:0.0714285714 63:0.0714285714 437:0.0714285714 1047:0.0714285714 1972:0.0714285714 2950:0.0714285714 3139:0.0714285714 3239:0.0714285714 3240:0.0714285714 3241:0.0714285714 3242:0.0714285714 3243:0.0714285714 3244:0.0714285714
32 4:0.0769230769 291:0.0769230769 387:0.0769230769 549:0.0769230769 665:0.0769230769 3240:0.0769230769 3245:0.0769230769 3246:0.0769230769 3247:0.0769230769 3248:0.0769230769 3249:0.0769230769 3250:0.0769230769 3251:0.0769230769
12.4166419793327 119:0.1 2317:0.1 3252:0.1 3253:0.1 3254:0.1 3255:0.1 3256:0.1 3257:0.1 3258:0.1 3259:0.1
32 4:0.0909090909 16:0.0909090909 310:0.0909090909 455:0.0909090909 690:0.0909090909 898:0.0909090909 1294:0.0909090909 1823:0.0909090909 1889:0.0909090909 3260:0.0909090909 3261:0.0909090909
11.1123987496967 4:0.0555555556 16:0.0555555556 19:0.0555555556 49:0.0555555556 91:0.0555555556 233:0.0555555556 347:0.0555555556 402:0.0555555556 687:0.0555555556 1766:0.0555555556 2322:0.0555555556 2760:0.0555555556 3264:0.0555555556 3265:0.0555555556 3266:0.0555555556 3267:0.0555555556 3268:0.0555555556 3269:0.0555555556
2.52671719560391 75:0.1428571429 590:0.1428571429 1637:0.1428571429 3270:0.1428571429 3271:0.1428571429 3272:0.1428571429 3273:0.1428571429
8.68784273077971 15:0.125 91:0.125 304:0.125 2737:0.125 3280:0.125 3281:0.125 3282:0.125 3283:0.125
32 16:0.0714285714 91:0.0714285714 99:0.0714285714 111:0.0714285714 347:0.0714285714 590:0.0714285714 625:0.0714285714 1537:0.0714285714 1930:0.0714285714 2730:0.0714285714 3303:0.0714285714 3304:0.0714285714 3305:0.0714285714 3306:0.0714285714
32 4:0.0666666667 36:0.0666666667 82:0.0666666667 135:0.0666666667 346:0.0666666667 547:0.0666666667 1185:0.0666666667 1288:0.0666666667 2580:0.0666666667 3307:0.0666666667 3308:0.0666666667 3309:0.0666666667 3310:0.0666666667 3311:0.0666666667 3312:0.0666666667
0.364063401363039 4:0.0666666667 98:0.0666666667 481:0.0666666667 620:0.0666666667 625:0.0666666667 1034:0.0666666667 1762:0.0666666667 2205:0.0666666667 3313:0.0666666667 3314:0.0666666667 3315:0.0666666667 3316:0.0666666667 3317:0.0666666667 3318:0.0666666667 3319:0.0666666667
32 4:0.1111111111 541:0.1111111111 590:0.1111111111 598:0.1111111111 672:0.1111111111 1659:0.1111111111 3320:0.1111111111 3321:0.1111111111 3322:0.1111111111
5.97962600107942 316:0.1428571429 596:0.1428571429 787:0.1428571429 1593:0.1428571429 3187:0.1428571429 3323:0.1428571429 3324:0.1428571429
20.3017781708161 99:0.125 898:0.125 926:0.125 1818:0.125 2924:0.125 3328:0.125 3329:0.125 3330:0.125
6.80977306290623 4:0.0625 310:0.0625 579:0.0625 682:0.0625 684:0.0625 808:0.0625 974:0.0625 1383:0.0625 1978:0.0625 3336:0.0625 3337:0.0625 3338:0.0625 3339:0.0625 3340:0.0625 3341:0.0625 3342:0.0625
14.2822623303413 16:0.0714285714 112:0.0714285714 194:0.0714285714 215:0.0714285714 220:0.0714285714 424:0.0714285714 482:0.0714285714 1276:0.0714285714 1599:0.0714285714 3344:0.0714285714 3345:0.0714285714 3346:0.0714285714 3347:0.0714285714 3348:0.0714285714
32 4:0.0555555556 16:0.0555555556 116:0.0555555556 118:0.0555555556 121:0.0555555556 222:0.0555555556 321:0.0555555556 322:0.0555555556 329:0.0555555556 472:0.0555555556 898:0.0555555556 1300:0.0555555556 1800:0.0555555556 2774:0.0555555556 3349:0.0555555556 3350:0.0555555556 3351:0.0555555556 3352:0.0555555556
28.9215754186485 4:0.0476190476 15:0.0476190476 25:0.0476190476 91:0.0476190476 116:0.0476190476 193:0.0476190476 274:0.0476190476 444:0.0476190476 481:0.0476190476 590:0.0476190476 687:0.0476190476 1290:0.0476190476 2496:0.0476190476 3353:0.0476190476 3354:0.0476190476 3355:0.0476190476 3356:0.0476190476 3357:0.0476190476 3358:0.0476190476 3359:0.0476190476 3360:0.0476190476
17.3717389801076 3:0.1 4:0.1 15:0.1 90:0.1 1556:0.1 1835:0.1 2345:0.1 2516:0.1 3361:0.1 3362:0.1
4.37008900574277 116:0.0588235294 347:0.0588235294 481:0.0588235294 577:0.0588235294 999:0.0588235294 1255:0.0588235294 1569:0.0588235294 1749:0.0588235294 2938:0.0588235294 3363:0.0588235294 3364:0.0588235294 3365:0.0588235294 3366:0.0588235294 3367:0.0588235294 3368:0.0588235294 3369:0.0588235294 3370:0.0588235294
3.17058210421099 1640:0.1428571429 1929:0.1428571429 2521:0.1428571429 3376:0.1428571429 3377:0.1428571429 3378:0.1428571429 3379:0.1428571429
7.09342497364232 3386:0.1428571429 3387:0.1428571429 3388:0.1428571429 3389:0.1428571429 3390:0.1428571429 3391:0.1428571429 3392:0.1428571429
23.1127885923579 67:0.0714285714 119:0.0714285714 372:0.0714285714 472:0.0714285714 475:0.0714285714 2123:0.0714285714 2546:0.0714285714 3393:0.0714285714 3394:0.0714285714 3395:0.0714285714 3396:0.0714285714 3397:0.0714285714 3398:0.0714285714 3399:0.0714285714
0.312251716591514 14:0.0666666667 15:0.0666666667 16:0.0666666667 223:0.0666666667 393:0.0666666667 801:0.0666666667 1071:0.0666666667 1609:0.0666666667 1823:0.0666666667 2070:0.0666666667 3429:0.0666666667 3430:0.0666666667 3431:0.0666666667 3432:0.0666666667 3433:0.0666666667
1.65380634304639 4:0.1 220:0.1 646:0.1 1537:0.1 1598:0.1 2678:0.1 2975:0.1 3430:0.1 3448:0.1 3449:0.1
0.839795992849042 27:0.0625 75:0.0625 116:0.0625 172:0.0625 258:0.0625 3097:0.0625 3450:0.0625 3451:0.0625 3452:0.0625 3453:0.0625 3454:0.0625 3455:0.0625 3456:0.0625 3457:0.0625 3458:0.0625 3459:0.0625
7.87113548016095 635:0.1666666667 750:0.1666666667 3471:0.1666666667 3472:0.1666666667 3473:0.1666666667 3474:0.1666666667
12.927942346075 19:0.1 28:0.1 119:0.1 183:0.1 3475:0.1 3476:0.1 3477:0.1 3478:0.1 3479:0.1 3480:0.1
23.6081700288408 3:0.0666666667 76:0.0666666667 275:0.0666666667 816:0.0666666667 1290:0.0666666667 3200:0.0666666667 3481:0.0666666667 3482:0.0666666667 3483:0.0666666667 3484:0.0666666667 3485:0.0666666667 3486:0.0666666667 3487:0.0666666667 3488:0.0666666667 3489:0.0666666667
32 4:0.0666666667 40:0.0666666667 167:0.0666666667 454:0.0666666667 869:0.0666666667 873:0.0666666667 1184:0.0666666667 3042:0.0666666667 3490:0.0666666667 3491:0.0666666667 3492:0.0666666667 3493:0.0666666667 3494:0.0666666667 3495:0.0666666667 3496:0.0666666667
12.4381259226576 4:0.0714285714 19:0.0714285714 99:0.0714285714 190:0.0714285714 1332:0.0714285714 2128:0.0714285714 2293:0.0714285714 2680:0.0714285714 3497:0.0714285714 3498:0.0714285714 3499:0.0714285714 3500:0.0714285714 3501:0.0714285714 3502:0.0714285714
19.7326026612634 4:0.0555555556 37:0.0555555556 54:0.0555555556 99:0.0555555556 127:0.0555555556 225:0.0555555556 531:0.0555555556 638:0.0555555556 722:0.0555555556 1223:0.0555555556 2345:0.0555555556 2776:0.0555555556 3220:0.0555555556 3512:0.0555555556 3513:0.0555555556 3514:0.0555555556 3515:0.0555555556 3516:0.0555555556
9.46668313105413 175:0.125 598:0.125 831:0.125 3527:0.125 3528:0.125 3529:0.125 3530:0.125 3531:0.125
19.1370028126176 4:0.0714285714 16:0.0714285714 220:0.0714285714 531:0.0714285714 1822:0.0714285714 2350:0.0714285714 2573:0.0714285714 3558:0.0714285714 3559:0.0714285714 3560:0.0714285714 3561:0.0714285714 3562:0.0714285714 3563:0.0714285714 3564:0.0714285714
27.3992204657084 41:0.0555555556 222:0.0555555556 248:0.0555555556 318:0.0555555556 472:0.0555555556 721:0.0555555556 998:0.0555555556 1274:0.0555555556 2417:0.0555555556 2659:0.0555555556 3558:0.0555555556 3565:0.0555555556 3566:0.0555555556 3567:0.0555555556 3568:0.0555555556 3569:0.0555555556 3570:0.0555555556 3571:0.0555555556
4.01358025273053 4:0.0555555556 91:0.0555555556 310:0.0555555556 314:0.0555555556 315:0.0555555556 542:0.0555555556 1798:0.0555555556 1895:0.0555555556 2500:0.0555555556 2563:0.0555555556 3555:0.0555555556 3572:0.0555555556 3573:0.0555555556 3574:0.0555555556 3575:0.0555555556 3576:0.0555555556 3577:0.0555555556 3578:0.0555555556
7.39944403815047 4:0.1 127:0.1 322:0.1 1118:0.1 2166:0.1 3006:0.1 3606:0.1 3607:0.1 3608:0.1 3609:0.1
31.184900171317 4:0.0434782609 16:0.0434782609 161:0.0434782609 172:0.0434782609 243:0.0434782609 322:0.0434782609 1342:0.0434782609 1364:0.0434782609 1634:0.0434782609 2832:0.0434782609 3616:0.0434782609 3617:0.0434782609 3618:0.0434782609 3619:0.0434782609 3620:0.0434782609 3621:0.0434782609 3622:0.0434782609 3623:0.0434782609 3624:0.0434782609 3625:0.0434782609 3626:0.0434782609 3627:0.0434782609 3628:0.0434782609
3.49011351657385 19:0.1 220:0.1 304:0.1 347:0.1 453:0.1 487:0.1 3629:0.1 3630:0.1 3631:0.1 3632:0.1
26.4124449943941 4:0.0476190476 76:0.0476190476 504:0.0476190476 634:0.0476190476 731:0.0476190476 899:0.0476190476 1417:0.0476190476 1962:0.0476190476 2566:0.0476190476 3651:0.0476190476 3652:0.0476190476 3653:0.0476190476 3654:0.0476190476 3655:0.0476190476 3656:0.0476190476 3657:0.0476190476 3658:0.0476190476 3659:0.0476190476 3660:0.0476190476 3661:0.0476190476 3662:0.0476190476
19.2370126063334 4:0.0555555556 16:0.0555555556 220:0.0555555556 515:0.0555555556 756:0.0555555556 999:0.0555555556 1005:0.0555555556 1096:0.0555555556 1268:0.0555555556 1913:0.0555555556 2193:0.0555555556 2587:0.0555555556 3663:0.0555555556 3664:0.0555555556 3665:0.0555555556 3666:0.0555555556 3667:0.0555555556 3668:0.0555555556
32 4:0.0769230769 99:0.0769230769 420:0.0769230769 590:0.0769230769 682:0.0769230769 1146:0.0769230769 1454:0.0769230769 1853:0.0769230769 2551:0.0769230769 3675:0.0769230769 3676:0.0769230769 3677:0.0769230769 3678:0.0769230769
28.0868585273953 310:0.0833333333 776:0.0833333333 2126:0.0833333333 2522:0.0833333333 2707:0.0833333333 2956:0.0833333333 3687:0.0833333333 3688:0.0833333333 3689:0.0833333333 3690:0.0833333333 3691:0.0833333333 3692:0.0833333333
16.3502721774023 4:0.0666666667 722:0.0666666667 1287:0.0666666667 2130:0.0666666667 2290:0.0666666667 2883:0.0666666667 3695:0.0666666667 3696:0.0666666667 3697:0.0666666667 3698:0.0666666667 3699:0.0666666667 3700:0.0666666667 3701:0.0666666667 3702:0.0666666667 3703:0.0666666667
32 4:0.1 123:0.1 468:0.1 472:0.1 568:0.1 1029:0.1 1441:0.1 2070:0.1 3711:0.1 3712:0.1
10.503846950398 4:0.0833333333 91:0.0833333333 558:0.0833333333 1182:0.0833333333 1428:0.0833333333 1549:0.0833333333 3724:0.0833333333 3725:0.0833333333 3726:0.0833333333 3727:0.0833333333 3728:0.0833333333 3729:0.0833333333
16.3177508526343 16:0.1666666667 205:0.1666666667 585:0.1666666667 992:0.1666666667 1562:0.1666666667 3730:0.1666666667
21.8266622473569 116:0.125 123:0.125 304:0.125 1542:0.125 3737:0.125 3738:0.125 3739:0.125 3740:0.125
11.1768057149373 4:0.0714285714 86:0.0714285714 300:0.0714285714 321:0.0714285714 481:0.0714285714 882:0.0714285714 1121:0.0714285714 1634:0.0714285714 3741:0.0714285714 3742:0.0714285714 3743:0.0714285714 3744:0.0714285714 3745:0.0714285714 3746:0.0714285714
32 4:0.0476190476 116:0.0476190476 322:0.0476190476 347:0.0476190476 448:0.0476190476 579:0.0476190476 709:0.0476190476 1146:0.0476190476 1864:0.0476190476 2497:0.0476190476 2891:0.0476190476 3505:0.0476190476 3754:0.0476190476 3755:0.0476190476 3756:0.0476190476 3757:0.0476190476 3758:0.0476190476 3759:0.0476190476 3760:0.0476190476 3761:0.0476190476 3762:0.0476190476
32 4:0.1111111111 19:0.1111111111 99:0.1111111111 280:0.1111111111 487:0.1111111111 2286:0.1111111111 3006:0.1111111111 3773:0.1111111111 3774:0.1111111111
21.1071928595035 4:0.0588235294 372:0.0588235294 563:0.0588235294 694:0.0588235294 2457:0.0588235294 2620:0.0588235294 2933:0.0588235294 3471:0.0588235294 3775:0.0588235294 3776:0.0588235294 3777:0.0588235294 3778:0.0588235294 3779:0.0588235294 3780:0.0588235294 3781:0.0588235294 3782:0.0588235294 3783:0.0588235294
32 4:0.125 222:0.125 1078:0.125 1333:0.125 3126:0.125 3784:0.125 3785:0.125 3786:0.125
29.5015499050325 172:0.0714285714 183:0.0714285714 237:0.0714285714 340:0.0714285714 428:0.0714285714 1177:0.0714285714 1276:0.0714285714 3787:0.0714285714 3788:0.0714285714 3789:0.0714285714 3790:0.0714285714 3791:0.0714285714 3792:0.0714285714 3793:0.0714285714
8.27452120658254 60:0.0909090909 220:0.0909090909 1276:0.0909090909 2411:0.0909090909 3704:0.0909090909 3782:0.0909090909 3805:0.0909090909 3806:0.0909090909 3807:0.0909090909 3808:0.0909090909 3809:0.0909090909
32 73:0.0714285714 335:0.0714285714 701:0.0714285714 730:0.0714285714 995:0.0714285714 1267:0.0714285714 1308:0.0714285714 1768:0.0714285714 1898:0.0714285714 3074:0.0714285714 3810:0.0714285714 3811:0.0714285714 3812:0.0714285714 3813:0.0714285714
32 4:0.0384615385 16:0.0384615385 17:0.0384615385 259:0.0384615385 579:0.0384615385 722:0.0384615385 884:0.0384615385 1046:0.0384615385 1607:0.0384615385 2433:0.0384615385 2519:0.0384615385 2529:0.0384615385 2975:0.0384615385 3821:0.0384615385 3822:0.0384615385 3823:0.0384615385 3824:0.0384615385 3825:0.0384615385 3826:0.0384615385 3827:0.0384615385 3828:0.0384615385 3829:0.0384615385 3830:0.0384615385 3831:0.0384615385 3832:0.0384615385 3833:0.0384615385
10.1465044347236 91:0.0666666667 573:0.0666666667 730:0.0666666667 3835:0.0666666667 3836:0.0666666667 3837:0.0666666667 3838:0.0666666667 3839:0.0666666667 3840:0.0666666667 3841:0.0666666667 3842:0.0666666667 3843:0.0666666667 3844:0.0666666667 3845:0.0666666667 3846:0.0666666667
28.1081906129561 4:0.0833333333 175:0.0833333333 225:0.0833333333 2533:0.0833333333 2649:0.0833333333 2883:0.0833333333 3023:0.0833333333 3847:0.0833333333 3848:0.0833333333 3849:0.0833333333 3850:0.0833333333 3851:0.0833333333
14.3519461063229 4:0.125 3263:0.125 3413:0.125 3608:0.125 3852:0.125 3853:0.125 3854:0.125 3855:0.125
32 4:0.0454545455 15:0.0454545455 91:0.0454545455 252:0.0454545455 336:0.0454545455 1078:0.0454545455 1124:0.0454545455 1359:0.0454545455 1856:0.0454545455 1946:0.0454545455 2008:0.0454545455 3492:0.0454545455 3814:0.0454545455 3856:0.0454545455 3857:0.0454545455 3858:0.0454545455 3859:0.0454545455 3860:0.0454545455 3861:0.0454545455 3862:0.0454545455 3863:0.0454545455 3864:0.0454545455
14.8166679365242 322:0.1428571429 1243:0.1428571429 2621:0.1428571429 2816:0.1428571429 3878:0.1428571429 3879:0.1428571429 3880:0.1428571429
12.4458787197228 19:0.0666666667 76:0.0666666667 99:0.0666666667 458:0.0666666667 780:0.0666666667 1568:0.0666666667 1835:0.0666666667 3104:0.0666666667 3881:0.0666666667 3882:0.0666666667 3883:0.0666666667 3884:0.0666666667 3885:0.0666666667 3886:0.0666666667 3887:0.0666666667
25.4372194562055 4:0.0666666667 123:0.0666666667 321:0.0666666667 541:0.0666666667 987:0.0666666667 1187:0.0666666667 2300:0.0666666667 3664:0.0666666667 3895:0.0666666667 3896:0.0666666667 3897:0.0666666667 3898:0.0666666667 3899:0.0666666667 3900:0.0666666667 3901:0.0666666667
2.35338314155088 16:0.2 700:0.2 701:0.2 2797:0.2 3902:0.2
4.19406447915117 118:0.2 614:0.2 2655:0.2 3923:0.2 3924:0.2
4.44446840210208 4:0.0714285714 15:0.0714285714 48:0.0714285714 74:0.0714285714 91:0.0714285714 223:0.0714285714 256:0.0714285714 499:0.0714285714 1005:0.0714285714 1451:0.0714285714 3925:0.0714285714 3926:0.0714285714 3927:0.0714285714 3928:0.0714285714
8.7714107453973 99:0.0555555556 116:0.0555555556 318:0.0555555556 519:0.0555555556 599:0.0555555556 722:0.0555555556 964:0.0555555556 1791:0.0555555556 2065:0.0555555556 2271:0.0555555556 2704:0.0555555556 3400:0.0555555556 3941:0.0555555556 3942:0.0555555556 3943:0.0555555556 3944:0.0555555556 3945:0.0555555556 3946:0.0555555556
11.9128901777648 11:0.25 515:0.25 1268:0.25 3947:0.25
19.4375120333821 4:0.05 74:0.05 83:0.05 91:0.05 172:0.05 792:0.05 999:0.05 1177:0.05 2473:0.05 3950:0.05 3951:0.05 3952:0.05 3953:0.05 3954:0.05 3955:0.05 3956:0.05 3957:0.05 3958:0.05 3959:0.05 3960:0.05
32 4:0.0416666667 74:0.0416666667 99:0.0416666667 531:0.0416666667 609:0.0416666667 926:0.0416666667 1424:0.0416666667 1818:0.0416666667 2088:0.0416666667 2222:0.0416666667 2471:0.0416666667 2882:0.0416666667 3418:0.0416666667 3949:0.0416666667 3968:0.0416666667 3969:0.0416666667 3970:0.0416666667 3971:0.0416666667 3972:0.0416666667 3973:0.0416666667 3974:0.0416666667 3975:0.0416666667 3976:0.0416666667 3977:0.0416666667
19.8075435699195 4:0.0666666667 162:0.0666666667 563:0.0666666667 573:0.0666666667 619:0.0666666667 779:0.0666666667 2811:0.0666666667 3978:0.0666666667 3979:0.0666666667 3980:0.0666666667 3981:0.0666666667 3982:0.0666666667 3983:0.0666666667 3984:0.0666666667 3985:0.0666666667
10.8361827709666 737:0.1428571429 2049:0.1428571429 3586:0.1428571429 3990:0.1428571429 3991:0.1428571429 3992:0.1428571429 3993:0.1428571429
28.3499926155332 4:0.0714285714 112:0.0714285714 116:0.0714285714 195:0.0714285714 248:0.0714285714 385:0.0714285714 461:0.0714285714 1438:0.0714285714 3994:0.0714285714 3995:0.0714285714 3996:0.0714285714 3997:0.0714285714 3998:0.0714285714 3999:0.0714285714
24.2590600338809 16:0.1111111111 319:0.1111111111 895:0.1111111111 1730:0.1111111111 1903:0.1111111111 4009:0.1111111111 4010:0.1111111111 4011:0.1111111111 4012:0.1111111111
8.80790299033826 4:0.125 590:0.125 668:0.125 1764:0.125 2747:0.125 4003:0.125 4013:0.125 4014:0.125
3.02434592132619 119:0.1111111111 541:0.1111111111 569:0.1111111111 2682:0.1111111111 2872:0.1111111111 3603:0.1111111111 4024:0.1111111111 4025:0.1111111111 4026:0.1111111111
30.8476542698437 81:0.1428571429 156:0.1428571429 748:0.1428571429 4052:0.1428571429 4053:0.1428571429 4054:0.1428571429 4055:0.1428571429
6.16520683628903 25:0.0588235294 116:0.0588235294 410:0.0588235294 457:0.0588235294 544:0.0588235294 554:0.0588235294 568:0.0588235294 1274:0.0588235294 1288:0.0588235294 2721:0.0588235294 3213:0.0588235294 3586:0.0588235294 4057:0.0588235294 4058:0.0588235294 4059:0.0588235294 4060:0.0588235294 4061:0.0588235294
7.22932332324017 4:0.0833333333 6:0.0833333333 58:0.0833333333 76:0.0833333333 119:0.0833333333 687:0.0833333333 2889:0.0833333333 4062:0.0833333333 4063:0.0833333333 4064:0.0833333333 4065:0.0833333333 4066:0.0833333333
6.36827187593105 91:0.1666666667 3662:0.1666666667 4067:0.1666666667 4068:0.1666666667 4069:0.1666666667 4070:0.1666666667
11.6096461612208 4:0.0588235294 91:0.0588235294 112:0.0588235294 116:0.0588235294 587:0.0588235294 590:0.0588235294 680:0.0588235294 837:0.0588235294 1479:0.0588235294 2098:0.0588235294 3541:0.0588235294 4077:0.0588235294 4078:0.0588235294 4079:0.0588235294 4080:0.0588235294 4081:0.0588235294 4082:0.0588235294
19.0944395797285 16:0.0769230769 133:0.0769230769 160:0.0769230769 265:0.0769230769 587:0.0769230769 646:0.0769230769 2014:0.0769230769 3119:0.0769230769 4083:0.0769230769 4084:0.0769230769 4085:0.0769230769 4086:0.0769230769 4087:0.0769230769
12.6641863173286 4:0.0526315789 91:0.0526315789 530:0.0526315789 669:0.0526315789 717:0.0526315789 974:0.0526315789 999:0.0526315789 1008:0.0526315789 1371:0.0526315789 2235:0.0526315789 2493:0.0526315789 4088:0.0526315789 4089:0.0526315789 4090:0.0526315789 4091:0.0526315789 4092:0.0526315789 4093:0.0526315789 4094:0.0526315789 4095:0.0526315789
15.3678493242846 4:0.0555555556 15:0.0555555556 16:0.0555555556 91:0.0555555556 462:0.0555555556 803:0.0555555556 1030:0.0555555556 1072:0.0555555556 1143:0.0555555556 1577:0.0555555556 1877:0.0555555556 2886:0.0555555556 3760:0.0555555556 4096:0.0555555556 4097:0.0555555556 4098:0.0555555556 4099:0.0555555556 4100:0.0555555556
24.2356227208419 4:0.0555555556 232:0.0555555556 472:0.0555555556 541:0.0555555556 584:0.0555555556 865:0.0555555556 974:0.0555555556 1313:0.0555555556 2364:0.0555555556 2813:0.0555555556 2814:0.0555555556 3023:0.0555555556 4106:0.0555555556 4107:0.0555555556 4108:0.0555555556 4109:0.0555555556 4110:0.0555555556 4111:0.0555555556
1.0932172655589 83:0.1 112:0.1 122:0.1 204:0.1 585:0.1 2411:0.1 4112:0.1 4113:0.1 4114:0.1 4115:0.1
27.7919042720875 4:0.0909090909 244:0.0909090909 472:0.0909090909 1070:0.0909090909 1907:0.0909090909 3153:0.0909090909 4119:0.0909090909 4120:0.0909090909 4121:0.0909090909 4122:0.0909090909 4123:0.0909090909
27.1962800571104 4:0.0526315789 176:0.0526315789 194:0.0526315789 252:0.0526315789 259:0.0526315789 322:0.0526315789 329:0.0526315789 502:0.0526315789 1670:0.0526315789 2668:0.0526315789 3433:0.0526315789 4124:0.0526315789 4125:0.0526315789 4126:0.0526315789 4127:0.0526315789 4128:0.0526315789 4129:0.0526315789 4130:0.0526315789 4131:0.0526315789
8.10843096101737 15:0.0909090909 91:0.0909090909 232:0.0909090909 730:0.0909090909 1903:0.0909090909 2905:0.0909090909 4139:0.0909090909 4140:0.0909090909 4141:0.0909090909 4142:0.0909090909 4143:0.0909090909
4.55188349511955 4:0.1 118:0.1 547:0.1 625:0.1 687:0.1 3799:0.1 4151:0.1 4152:0.1 4153:0.1 4154:0.1
32 4:0.0588235294 15:0.0588235294 123:0.0588235294 256:0.0588235294 502:0.0588235294 1290:0.0588235294 1961:0.0588235294 2313:0.0588235294 2802:0.0588235294 4155:0.0588235294 4156:0.0588235294 4157:0.0588235294 4158:0.0588235294 4159:0.0588235294 4160:0.0588235294 4161:0.0588235294 4162:0.0588235294
23.28748382817 4:0.0526315789 15:0.0526315789 56:0.0526315789 481:0.0526315789 508:0.0526315789 1144:0.0526315789 1276:0.0526315789 2404:0.0526315789 3834:0.0526315789 4166:0.0526315789 4167:0.0526315789 4168:0.0526315789 4169:0.0526315789 4170:0.0526315789 4171:0.0526315789 4172:0.0526315789 4173:0.0526315789 4174:0.0526315789 4175:0.0526315789
22.6312902700194 4:0.0909090909 244:0.0909090909 472:0.0909090909 701:0.0909090909 2286:0.0909090909 4176:0.0909090909 4177:0.0909090909 4178:0.0909090909 4179:0.0909090909 4180:0.0909090909 4181:0.0909090909
32 4:0.0434782609 371:0.0434782609 1620:0.0434782609 1964:0.0434782609 4182:0.0434782609 4183:0.0434782609 4184:0.0434782609 4185:0.0434782609 4186:0.0434782609 4187:0.0434782609 4188:0.0434782609 4189:0.0434782609 4190:0.0434782609 4191:0.0434782609 4192:0.0434782609 4193:0.0434782609 4194:0.0434782609 4195:0.0434782609 4196:0.0434782609 4197:0.0434782609 4198:0.0434782609 4199:0.0434782609 4200:0.0434782609
7.81884951462922 147:0.0555555556 847:0.0555555556 848:0.0555555556 1406:0.0555555556 1407:0.0555555556 2449:0.0555555556 4210:0.0555555556 4211:0.0555555556 4212:0.0555555556 4213:0.0555555556 4214:0.0555555556 4215:0.0555555556 4216:0.0555555556 4217:0.0555555556 4218:0.0555555556 4219:0.0555555556 4220:0.0555555556 4221:0.0555555556
1.58177508098275 6:0.125 264:0.125 472:0.125 541:0.125 831:0.125 2956:0.125 4000:0.125 4222:0.125
13.3777944440257 73:0.0833333333 99:0.0833333333 304:0.0833333333 1804:0.0833333333 1944:0.0833333333 2291:0.0833333333 3559:0.0833333333 4241:0.0833333333 4242:0.0833333333 4243:0.0833333333 4244:0.0833333333 4245:0.0833333333
32 4:0.05 16:0.05 47:0.05 50:0.05 115:0.05 210:0.05 248:0.05 575:0.05 820:0.05 829:0.05 1586:0.05 1827:0.05 2459:0.05 2493:0.05 3704:0.05 3986:0.05 4257:0.05 4258:0.05 4259:0.05 4260:0.05
23.9466757555789 36:0.125 156:0.125 217:0.125 253:0.125 590:0.125 730:0.125 2318:0.125 4267:0.125
11.0917068939973 620:0.1428571429 4053:0.1428571429 4271:0.1428571429 4272:0.1428571429 4273:0.1428571429 4274:0.1428571429 4275:0.1428571429
12.1929577443521 4:0.0833333333 119:0.0833333333 420:0.0833333333 831:0.0833333333 1925:0.0833333333 2239:0.0833333333 2835:0.0833333333 2933:0.0833333333 3140:0.0833333333 4276:0.0833333333 4277:0.0833333333 4278:0.0833333333
14.7685168334868 4:0.0714285714 6:0.0714285714 222:0.0714285714 225:0.0714285714 481:0.0714285714 1019:0.0714285714 1474:0.0714285714 1549:0.0714285714 3017:0.0714285714 4282:0.0714285714 4283:0.0714285714 4284:0.0714285714 4285:0.0714285714 4286:0.0714285714
11.3599914077219 4:0.0833333333 69:0.0833333333 182:0.0833333333 475:0.0833333333 2317:0.0833333333 4293:0.0833333333 4294:0.0833333333 4295:0.0833333333 4296:0.0833333333 4297:0.0833333333 4298:0.0833333333 4299:0.0833333333
20.0831118025666 36:0.0833333333 761:0.0833333333 892:0.0833333333 1921:0.0833333333 2936:0.0833333333 3239:0.0833333333 4303:0.0833333333 4304:0.0833333333 4305:0.0833333333 4306:0.0833333333 4307:0.0833333333 4308:0.0833333333
25.6124155453886 25:0.0769230769 91:0.0769230769 156:0.0769230769 430:0.0769230769 475:0.0769230769 1049:0.0769230769 1595:0.0769230769 2306:0.0769230769 4312:0.0769230769 4313:0.0769230769 4314:0.0769230769 4315:0.0769230769 4316:0.0769230769
32 4:0.05 49:0.05 118:0.05 125:0.05 314:0.05 315:0.05 322:0.05 465:0.05 475:0.05 713:0.05 820:0.05 1647:0.05 1648:0.05 3074:0.05 4325:0.05 4326:0.05 4327:0.05 4328:0.05 4329:0.05 4330:0.05
32 4:0.0625 99:0.0625 304:0.0625 465:0.0625 502:0.0625 615:0.0625 682:0.0625 687:0.0625 816:0.0625 1054:0.0625 1418:0.0625 1891:0.0625 3530:0.0625 4331:0.0625 4332:0.0625 4333:0.0625
13.6739037294022 4:0.05 37:0.05 70:0.05 91:0.05 322:0.05 385:0.05 573:0.05 763:0.05 1060:0.05 1800:0.05 1999:0.05 2500:0.05 3557:0.05 4061:0.05 4344:0.05 4345:0.05 4346:0.05 4347:0.05 4348:0.05 4349:0.05
5.25199670145459 75:0.0666666667 111:0.0666666667 190:0.0666666667 554:0.0666666667 774:0.0666666667 783:0.0666666667 4371:0.0666666667 4372:0.0666666667 4373:0.0666666667 4374:0.0666666667 4375:0.0666666667 4376:0.0666666667 4377:0.0666666667 4378:0.0666666667 4379:0.0666666667
1.0765972628105 4:0.0666666667 69:0.0666666667 116:0.0666666667 156:0.0666666667 265:0.0666666667 590:0.0666666667 893:0.0666666667 998:0.0666666667 1001:0.0666666667 1063:0.0666666667 2704:0.0666666667 4384:0.0666666667 4385:0.0666666667 4386:0.0666666667 4387:0.0666666667
32 4:0.05 116:0.05 130:0.05 172:0.05 700:0.05 999:0.05 1006:0.05 2348:0.05 2349:0.05 3119:0.05 3258:0.05 4391:0.05 4392:0.05 4393:0.05 4394:0.05 4395:0.05 4396:0.05 4397:0.05 4398:0.05 4399:0.05
14.7626005199201 16:0.1 161:0.1 272:0.1 647:0.1 722:0.1 1930:0.1 3541:0.1 4400:0.1 4401:0.1 4402:0.1
32 15:0.0454545455 16:0.0454545455 82:0.0454545455 127:0.0454545455 291:0.0454545455 385:0.0454545455 722:0.0454545455 762:0.0454545455 846:0.0454545455 1329:0.0454545455 1752:0.0454545455 1913:0.0454545455 1961:0.0454545455 2572:0.0454545455 4404:0.0454545455 4405:0.0454545455 4406:0.0454545455 4407:0.0454545455 4408:0.0454545455 4409:0.0454545455 4410:0.0454545455 4411:0.0454545455
21.3717476426266 4:0.0666666667 181:0.0666666667 265:0.0666666667 700:0.0666666667 1229:0.0666666667 1477:0.0666666667 3067:0.0666666667 3537:0.0666666667 3956:0.0666666667 4419:0.0666666667 4420:0.0666666667 4421:0.0666666667 4422:0.0666666667 4423:0.0666666667 4424:0.0666666667
30.8906833077917 70:0.1 472:0.1 609:0.1 873:0.1 1178:0.1 1489:0.1 2654:0.1 4445:0.1 4446:0.1 4447:0.1
18.9943936917483 4:0.125 309:0.125 310:0.125 4448:0.125 4449:0.125 4450:0.125 4451:0.125 4452:0.125
32 4:0.1 16:0.1 69:0.1 222:0.1 262:0.1 579:0.1 937:0.1 4455:0.1 4456:0.1 4457:0.1
1.41430684475777 4:0.0769230769 29:0.0769230769 135:0.0769230769 359:0.0769230769 685:0.0769230769 970:0.0769230769 1938:0.0769230769 2183:0.0769230769 3762:0.0769230769 4460:0.0769230769 4461:0.0769230769 4462:0.0769230769 4463:0.0769230769
3.12334758423918 15:0.0714285714 116:0.0714285714 127:0.0714285714 335:0.0714285714 646:0.0714285714 2075:0.0714285714 2255:0.0714285714 2432:0.0714285714 4471:0.0714285714 4472:0.0714285714 4473:0.0714285714 4474:0.0714285714 4475:0.0714285714 4476:0.0714285714
22.8080363635727 4:0.0909090909 15:0.0909090909 91:0.0909090909 204:0.0909090909 574:0.0909090909 579:0.0909090909 1143:0.0909090909 4481:0.0909090909 4482:0.0909090909 4483:0.0909090909 4484:0.0909090909
20.2754044002089 4:0.1 123:0.1 247:0.1 721:0.1 3263:0.1 3855:0.1 4485:0.1 4486:0.1 4487:0.1 4488:0.1
13.5443602728572 4:0.0555555556 99:0.0555555556 430:0.0555555556 1517:0.0555555556 1944:0.0555555556 2493:0.0555555556 2727:0.0555555556 2940:0.0555555556 4495:0.0555555556 4496:0.0555555556 4497:0.0555555556 4498:0.0555555556 4499:0.0555555556 4500:0.0555555556 4501:0.0555555556 4502:0.0555555556 4503:0.0555555556 4504:0.0555555556
22.7610811246244 4:0.125 50:0.125 75:0.125 879:0.125 1938:0.125 4507:0.125 4508:0.125 4509:0.125
32 4:0.0588235294 156:0.0588235294 291:0.0588235294 390:0.0588235294 620:0.0588235294 625:0.0588235294 1424:0.0588235294 1848:0.0588235294 3220:0.0588235294 4510:0.0588235294 4511:0.0588235294 4512:0.0588235294 4513:0.0588235294 4514:0.0588235294 4515:0.0588235294 4516:0.0588235294 4517:0.0588235294
5.92991280372244 75:0.0666666667 233:0.0666666667 356:0.0666666667 987:0.0666666667 1021:0.0666666667 1382:0.0666666667 1496:0.0666666667 1520:0.0666666667 2180:0.0666666667 2339:0.0666666667 2933:0.0666666667 2975:0.0666666667 4518:0.0666666667 4519:0.0666666667 4520:0.0666666667
7.26400391288255 4:0.0833333333 722:0.0833333333 875:0.0833333333 1670:0.0833333333 2553:0.0833333333 3271:0.0833333333 3418:0.0833333333 3807:0.0833333333 4527:0.0833333333 4528:0.0833333333 4529:0.0833333333 4530:0.0833333333
22.5769781876756 468:0.0714285714 525:0.0714285714 632:0.0714285714 780:0.0714285714 1397:0.0714285714 1445:0.0714285714 1483:0.0714285714 3463:0.0714285714 4533:0.0714285714 4534:0.0714285714 4535:0.0714285714 4536:0.0714285714 4537:0.0714285714 4538:0.0714285714
32 99:0.0833333333 314:0.0833333333 590:0.0833333333 1204:0.0833333333 1215:0.0833333333 2291:0.0833333333 4545:0.0833333333 4546:0.0833333333 4547:0.0833333333 4548:0.0833333333 4549:0.0833333333 4550:0.0833333333
30.6650456534524 4:0.0769230769 300:0.0769230769 322:0.0769230769 701:0.0769230769 832:0.0769230769 2986:0.0769230769 3588:0.0769230769 3954:0.0769230769 3955:0.0769230769 4551:0.0769230769 4552:0.0769230769 4553:0.0769230769 4554:0.0769230769
8.41171891914338 4:0.0833333333 36:0.0833333333 116:0.0833333333 127:0.0833333333 243:0.0833333333 481:0.0833333333 546:0.0833333333 592:0.0833333333 1084:0.0833333333 2032:0.0833333333 3760:0.0833333333 4559:0.0833333333
32 36:0.0666666667 83:0.0666666667 116:0.0666666667 183:0.0666666667 335:0.0666666667 726:0.0666666667 999:0.0666666667 1877:0.0666666667 2411:0.0666666667 2756:0.0666666667 4562:0.0666666667 4563:0.0666666667 4564:0.0666666667 4565:0.0666666667 4566:0.0666666667
0.207227936558245 4:0.0769230769 56:0.0769230769 223:0.0769230769 289:0.0769230769 573:0.0769230769 689:0.0769230769 722:0.0769230769 823:0.0769230769 1474:0.0769230769 4567:0.0769230769 4568:0.0769230769 4569:0.0769230769 4570:0.0769230769
0.687296425877277 116:0.125 220:0.125 240:0.125 583:0.125 638:0.125 1188:0.125 4571:0.125 4572:0.125
32 4:0.0769230769 314:0.0769230769 315:0.0769230769 381:0.0769230769 457:0.0769230769 1078:0.0769230769 1766:0.0769230769 3402:0.0769230769 4095:0.0769230769 4573:0.0769230769 4574:0.0769230769 4575:0.0769230769 4576:0.0769230769
23.6487335655646 4:0.0434782609 17:0.0434782609 47:0.0434782609 73:0.0434782609 275:0.0434782609 310:0.0434782609 519:0.0434782609 1130:0.0434782609 1999:0.0434782609 2005:0.0434782609 2160:0.0434782609 2563:0.0434782609 2668:0.0434782609 3023:0.0434782609 3876:0.0434782609 4028:0.0434782609 4582:0.0434782609 4583:0.0434782609 4584:0.0434782609 4585:0.0434782609 4586:0.0434782609 4587:0.0434782609 4588:0.0434782609
11.7693680971845 608:0.0833333333 1397:0.0833333333 1402:0.0833333333 1741:0.0833333333 4591:0.0833333333 4592:0.0833333333 4593:0.0833333333 4594:0.0833333333 4595:0.0833333333 4596:0.0833333333 4597:0.0833333333 4598:0.0833333333
27.3153142479452 36:0.0625 201:0.0625 214:0.0625 227:0.0625 272:0.0625 701:0.0625 2346:0.0625 2347:0.0625 2348:0.0625 2349:0.0625 2811:0.0625 4599:0.0625 4600:0.0625 4601:0.0625 4602:0.0625 4603:0.0625
6.8608076714754 4:0.0714285714 116:0.0714285714 204:0.0714285714 248:0.0714285714 2546:0.0714285714 2776:0.0714285714 2882:0.0714285714 4608:0.0714285714 4609:0.0714285714 4610:0.0714285714 4611:0.0714285714 4612:0.0714285714 4613:0.0714285714 4614:0.0714285714
10.527158580471 472:0.0833333333 527:0.0833333333 625:0.0833333333 932:0.0833333333 1276:0.0833333333 1938:0.0833333333 3267:0.0833333333 3435:0.0833333333 3674:0.0833333333 3784:0.0833333333 4626:0.0833333333 4627:0.0833333333
9.56311625436194 4:0.1111111111 399:0.1111111111 777:0.1111111111 1228:0.1111111111 1295:0.1111111111 1902:0.1111111111 4649:0.1111111111 4650:0.1111111111 4651:0.1111111111
2.63784012401252 351:0.1428571429 554:0.1428571429 4427:0.1428571429 4654:0.1428571429 4655:0.1428571429 4656:0.1428571429 4657:0.1428571429
8.54368367296958 15:0.1111111111 1223:0.1111111111 2108:0.1111111111 4658:0.1111111111 4659:0.1111111111 4660:0.1111111111 4661:0.1111111111 4662:0.1111111111 4663:0.1111111111
32 4:0.0434782609 15:0.0434782609 75:0.0434782609 99:0.0434782609 116:0.0434782609 322:0.0434782609 487:0.0434782609 590:0.0434782609 664:0.0434782609 999:0.0434782609 1300:0.0434782609 2046:0.0434782609 2300:0.0434782609 3418:0.0434782609 4667:0.0434782609 4668:0.0434782609 4669:0.0434782609 4670:0.0434782609 4671:0.0434782609 4672:0.0434782609 4673:0.0434782609 4674:0.0434782609 4675:0.0434782609
29.9738232575178 4:0.0909090909 127:0.0909090909 532:0.0909090909 620:0.0909090909 733:0.0909090909 3305:0.0909090909 3683:0.0909090909 4685:0.0909090909 4686:0.0909090909 4687:0.0909090909 4688:0.0909090909
24.4829113602699 141:0.0714285714 322:0.0714285714 324:0.0714285714 630:0.0714285714 730:0.0714285714 2519:0.0714285714 2560:0.0714285714 3661:0.0714285714 4694:0.0714285714 4695:0.0714285714 4696:0.0714285714 4697:0.0714285714 4698:0.0714285714 4699:0.0714285714
5.53847030742473 879:0.1428571429 1763:0.1428571429 4700:0.1428571429 4701:0.1428571429 4702:0.1428571429 4703:0.1428571429 4704:0.1428571429
32 4:0.0454545455 76:0.0454545455 174:0.0454545455 256:0.0454545455 335:0.0454545455 481:0.0454545455 499:0.0454545455 565:0.0454545455 584:0.0454545455 625:0.0454545455 722:0.0454545455 798:0.0454545455 1044:0.0454545455 1388:0.0454545455 1548:0.0454545455 1730:0.0454545455 1823:0.0454545455 3579:0.0454545455 4705:0.0454545455 4706:0.0454545455 4707:0.0454545455 4708:0.0454545455
29.294728817512 4:0.0769230769 16:0.0769230769 325:0.0769230769 541:0.0769230769 637:0.0769230769 896:0.0769230769 1046:0.0769230769 1963:0.0769230769 2547:0.0769230769 3126:0.0769230769 3509:0.0769230769 4726:0.0769230769 4727:0.0769230769
2.33056907485932 147:0.1428571429 3573:0.1428571429 4728:0.1428571429 4729:0.1428571429 4730:0.1428571429 4731:0.1428571429 4732:0.1428571429
5.28463416619995 75:0.0625 119:0.0625 210:0.0625 265:0.0625 335:0.0625 366:0.0625 420:0.0625 541:0.0625 694:0.0625 981:0.0625 2890:0.0625 4746:0.0625 4747:0.0625 4748:0.0625 4749:0.0625 4750:0.0625
19.3420545916504 4:0.1 174:0.1 468:0.1 669:0.1 677:0.1 1017:0.1 1029:0.1 4757:0.1 4758:0.1 4759:0.1
32 4:0.05 190:0.05 1044:0.05 1340:0.05 1385:0.05 2120:0.05 2815:0.05 4427:0.05 4760:0.05 4761:0.05 4762:0.05 4763:0.05 4764:0.05 4765:0.05 4766:0.05 4767:0.05 4768:0.05 4769:0.05 4770:0.05 4771:0.05
5.31342722178737 36:0.0909090909 454:0.0909090909 721:0.0909090909 1277:0.0909090909 4772:0.0909090909 4773:0.0909090909 4774:0.0909090909 4775:0.0909090909 4776:0.0909090909 4777:0.0909090909 4778:0.0909090909
32 4:0.0526315789 52:0.0526315789 69:0.0526315789 122:0.0526315789 127:0.0526315789 275:0.0526315789 733:0.0526315789 974:0.0526315789 987:0.0526315789 1185:0.0526315789 1223:0.0526315789 1274:0.0526315789 1359:0.0526315789 2051:0.0526315789 2720:0.0526315789 4786:0.0526315789 4787:0.0526315789 4788:0.0526315789 4789:0.0526315789
4.75566958958989 73:0.0909090909 172:0.0909090909 213:0.0909090909 223:0.0909090909 1925:0.0909090909 4207:0.0909090909 4811:0.0909090909 4812:0.0909090909 4813:0.0909090909 4814:0.0909090909 4815:0.0909090909
12.8971932059691 4:0.0714285714 25:0.0714285714 37:0.0714285714 1371:0.0714285714 1656:0.0714285714 1945:0.0714285714 2679:0.0714285714 3059:0.0714285714 3346:0.0714285714 4816:0.0714285714 4817:0.0714285714 4818:0.0714285714 4819:0.0714285714 4820:0.0714285714
32 4:0.125 28:0.125 62:0.125 401:0.125 1371:0.125 2497:0.125 4821:0.125 4822:0.125
10.9543554245375 116:0.2 780:0.2 1223:0.2 4823:0.2 4824:0.2
21.6258511333795 4:0.0769230769 17:0.0769230769 91:0.0769230769 127:0.0769230769 194:0.0769230769 508:0.0769230769 930:0.0769230769 2730:0.0769230769 3093:0.0769230769 4828:0.0769230769 4829:0.0769230769 4830:0.0769230769 4831:0.0769230769
5.56770255591839 4:0.1 74:0.1 420:0.1 1013:0.1 2497:0.1 2707:0.1 3848:0.1 4832:0.1 4833:0.1 4834:0.1
13.8182603025261 394:0.0909090909 583:0.0909090909 964:0.0909090909 1064:0.0909090909 2091:0.0909090909 2092:0.0909090909 2350:0.0909090909 3199:0.0909090909 4836:0.0909090909 4837:0.0909090909 4838:0.0909090909
4.65247279359762 4:0.0416666667 16:0.0416666667 64:0.0416666667 74:0.0416666667 119:0.0416666667 127:0.0416666667 196:0.0416666667 284:0.0416666667 310:0.0416666667 502:0.0416666667 569:0.0416666667 816:0.0416666667 1255:0.0416666667 2500:0.0416666667 2938:0.0416666667 2978:0.0416666667 3346:0.0416666667 3673:0.0416666667 3754:0.0416666667 4242:0.0416666667 4616:0.0416666667 4839:0.0416666667 4840:0.0416666667 4841:0.0416666667
32 4:0.0666666667 99:0.0666666667 112:0.0666666667 565:0.0666666667 585:0.0666666667 607:0.0666666667 640:0.0666666667 1359:0.0666666667 1877:0.0666666667 2034:0.0666666667 2345:0.0666666667 2473:0.0666666667 3253:0.0666666667 4850:0.0666666667 4851:0.0666666667
32 4:0.0555555556 82:0.0555555556 188:0.0555555556 272:0.0555555556 304:0.0555555556 388:0.0555555556 646:0.0555555556 1287:0.0555555556 1542:0.0555555556 2088:0.0555555556 3182:0.0555555556 3598:0.0555555556 4852:0.0555555556 4853:0.0555555556 4854:0.0555555556 4855:0.0555555556 4856:0.0555555556 4857:0.0555555556
15.1943996978094 4:0.0769230769 156:0.0769230769 275:0.0769230769 601:0.0769230769 1864:0.0769230769 3762:0.0769230769 4861:0.0769230769 4862:0.0769230769 4863:0.0769230769 4864:0.0769230769 4865:0.0769230769 4866:0.0769230769 4867:0.0769230769
19.3401329177513 16:0.0909090909 119:0.0909090909 122:0.0909090909 127:0.0909090909 1262:0.0909090909 1762:0.0909090909 1920:0.0909090909 3891:0.0909090909 4892:0.0909090909 4893:0.0909090909 4894:0.0909090909
15.597448332294 4:0.0625 19:0.0625 183:0.0625 371:0.0625 412:0.0625 547:0.0625 1139:0.0625 2977:0.0625 4908:0.0625 4909:0.0625 4910:0.0625 4911:0.0625 4912:0.0625 4913:0.0625 4914:0.0625 4915:0.0625
4.98152229976014 322:0.125 472:0.125 796:0.125 1034:0.125 1274:0.125 2515:0.125 3110:0.125 3214:0.125
28.5886718268101 4:0.125 590:0.125 699:0.125 1556:0.125 1946:0.125 4925:0.125 4926:0.125 4927:0.125
21.230839649956 4:0.0833333333 345:0.0833333333 406:0.0833333333 481:0.0833333333 1019:0.0833333333 4100:0.0833333333 4673:0.0833333333 4928:0.0833333333 4929:0.0833333333 4930:0.0833333333 4931:0.0833333333 4932:0.0833333333
28.8303685320999 19:0.0769230769 50:0.0769230769 75:0.0769230769 82:0.0769230769 266:0.0769230769 437:0.0769230769 590:0.0769230769 1253:0.0769230769 3732:0.0769230769 4934:0.0769230769 4935:0.0769230769 4936:0.0769230769 4937:0.0769230769
21.2118056058164 112:0.1428571429 119:0.1428571429 585:0.1428571429 4948:0.1428571429 4949:0.1428571429 4950:0.1428571429 4951:0.1428571429
5.89133849118075 2098:0.25 4961:0.25 4962:0.25 4963:0.25
20.7586998456149 4:0.0625 74:0.0625 116:0.0625 239:0.0625 289:0.0625 590:0.0625 1276:0.0625 1374:0.0625 3134:0.0625 3716:0.0625 4964:0.0625 4965:0.0625 4966:0.0625 4967:0.0625 4968:0.0625 4969:0.0625
5.37998141147829 4:0.0833333333 91:0.0833333333 122:0.0833333333 475:0.0833333333 987:0.0833333333 1243:0.0833333333 2167:0.0833333333 2500:0.0833333333 3326:0.0833333333 4974:0.0833333333 4975:0.0833333333 4976:0.0833333333
5.7597624849674 4:0.0625 8:0.0625 91:0.0625 183:0.0625 368:0.0625 1706:0.0625 2889:0.0625 4979:0.0625 4980:0.0625 4981:0.0625 4982:0.0625 4983:0.0625 4984:0.0625 4985:0.0625 4986:0.0625 4987:0.0625
0.669179399463856 73:0.0526315789 304:0.0526315789 519:0.0526315789 584:0.0526315789 630:0.0526315789 783:0.0526315789 1800:0.0526315789 1839:0.0526315789 2500:0.0526315789 4046:0.0526315789 4935:0.0526315789 4988:0.0526315789 4989:0.0526315789 4990:0.0526315789 4991:0.0526315789 4992:0.0526315789 4993:0.0526315789 4994:0.0526315789 4995:0.0526315789
13.8964257357395 16:0.0769230769 91:0.0769230769 116:0.0769230769 372:0.0769230769 858:0.0769230769 869:0.0769230769 1060:0.0769230769 2056:0.0769230769 2308:0.0769230769 4674:0.0769230769 4996:0.0769230769 4997:0.0769230769 4998:0.0769230769
23.4987198262506 69:0.0625 83:0.0625 161:0.0625 320:0.0625 722:0.0625 1064:0.0625 1489:0.0625 2433:0.0625 3384:0.0625 5001:0.0625 5002:0.0625 5003:0.0625 5004:0.0625 5005:0.0625 5006:0.0625 5007:0.0625
21.838827634919 4:0.04 16:0.04 83:0.04 127:0.04 275:0.04 414:0.04 1241:0.04 1369:0.04 1562:0.04 1671:0.04 2090:0.04 2815:0.04 3875:0.04 4059:0.04 4279:0.04 4377:0.04 4436:0.04 4943:0.04 5008:0.04 5009:0.04 5010:0.04 5011:0.04 5012:0.04 5013:0.04 5014:0.04
11.9420068431867 25:0.1428571429 1782:0.1428571429 4819:0.1428571429 4980:0.1428571429 5020:0.1428571429 5021:0.1428571429 5022:0.1428571429
32 16:0.0769230769 75:0.0769230769 625:0.0769230769 1007:0.0769230769 1877:0.0769230769 2037:0.0769230769 2126:0.0769230769 2415:0.0769230769 2788:0.0769230769 5025:0.0769230769 5026:0.0769230769 5027:0.0769230769 5028:0.0769230769
32 36:0.0714285714 48:0.0714285714 99:0.0714285714 225:0.0714285714 576:0.0714285714 722:0.0714285714 730:0.0714285714 1257:0.0714285714 1527:0.0714285714 2746:0.0714285714 4600:0.0714285714 5029:0.0714285714 5030:0.0714285714 5031:0.0714285714
16.7744988943229 4:0.0666666667 99:0.0666666667 244:0.0666666667 285:0.0666666667 472:0.0666666667 1584:0.0666666667 2387:0.0666666667 2620:0.0666666667 2883:0.0666666667 3546:0.0666666667 3778:0.0666666667 4685:0.0666666667 4935:0.0666666667 5032:0.0666666667 5033:0.0666666667
5.60963608088264 4:0.0909090909 248:0.0909090909 626:0.0909090909 989:0.0909090909 1016:0.0909090909 1229:0.0909090909 4574:0.0909090909 5038:0.0909090909 5039:0.0909090909 5040:0.0909090909 5041:0.0909090909
5.01111094409998 4:0.0588235294 17:0.0588235294 75:0.0588235294 86:0.0588235294 779:0.0588235294 1556:0.0588235294 1853:0.0588235294 2449:0.0588235294 4274:0.0588235294 5051:0.0588235294 5052:0.0588235294 5053:0.0588235294 5054:0.0588235294 5055:0.0588235294 5056:0.0588235294 5057:0.0588235294 5058:0.0588235294
32 4:0.037037037 161:0.037037037 166:0.037037037 171:0.037037037 172:0.037037037 275:0.037037037 304:0.037037037 322:0.037037037 480:0.037037037 964:0.037037037 1081:0.037037037 1082:0.037037037 1177:0.037037037 1224:0.037037037 1385:0.037037037 2032:0.037037037 2836:0.037037037 3425:0.037037037 3603:0.037037037 5059:0.037037037 5060:0.037037037 5061:0.037037037 5062:0.037037037 5063:0.037037037 5064:0.037037037 5065:0.037037037 5066:0.037037037
32 4:0.0625 167:0.0625 171:0.0625 172:0.0625 748:0.0625 898:0.0625 2791:0.0625 2865:0.0625 3491:0.0625 3493:0.0625 3777:0.0625 4563:0.0625 5067:0.0625 5068:0.0625 5069:0.0625 5070:0.0625
11.4301444473631 789:0.1 1704:0.1 3120:0.1 3773:0.1 5073:0.1 5074:0.1 5075:0.1 5076:0.1 5077:0.1 5078:0.1
16.486689971086 4:0.0454545455 322:0.0454545455 442:0.0454545455 451:0.0454545455 722:0.0454545455 899:0.0454545455 901:0.0454545455 930:0.0454545455 1227:0.0454545455 1523:0.0454545455 1800:0.0454545455 2542:0.0454545455 3706:0.0454545455 5046:0.0454545455 5082:0.0454545455 5083:0.0454545455 5084:0.0454545455 5085:0.0454545455 5086:0.0454545455 5087:0.0454545455 5088:0.0454545455 5089:0.0454545455
24.9031260477446 4:0.05 15:0.05 36:0.05 116:0.05 289:0.05 521:0.05 717:0.05 1823:0.05 2070:0.05 2613:0.05 3435:0.05 4233:0.05 5097:0.05 5098:0.05 5099:0.05 5100:0.05 5101:0.05 5102:0.05 5103:0.05 5104:0.05
24.6328626914399 4:0.0769230769 56:0.0769230769 116:0.0769230769 277:0.0769230769 1171:0.0769230769 2033:0.0769230769 2565:0.0769230769 3338:0.0769230769 5106:0.0769230769 5107:0.0769230769 5108:0.0769230769 5109:0.0769230769 5110:0.0769230769
25.3925373594198 27:0.0769230769 49:0.0769230769 73:0.0769230769 421:0.0769230769 1116:0.0769230769 4146:0.0769230769 5117:0.0769230769 5118:0.0769230769 5119:0.0769230769 5120:0.0769230769 5121:0.0769230769 5122:0.0769230769 5123:0.0769230769
7.87725606241642 4:0.0666666667 112:0.0666666667 141:0.0666666667 263:0.0666666667 737:0.0666666667 1702:0.0666666667 1963:0.0666666667 2413:0.0666666667 2498:0.0666666667 3277:0.0666666667 3555:0.0666666667 5124:0.0666666667 5125:0.0666666667 5126:0.0666666667 5127:0.0666666667
3.77373155132956 75:0.125 116:0.125 417:0.125 625:0.125 2835:0.125 5130:0.125 5131:0.125 5132:0.125
10.3542206654353 16:0.0588235294 19:0.0588235294 48:0.0588235294 173:0.0588235294 177:0.0588235294 583:0.0588235294 1021:0.0588235294 1241:0.0588235294 2456:0.0588235294 2833:0.0588235294 5012:0.0588235294 5142:0.0588235294 5143:0.0588235294 5144:0.0588235294 5145:0.0588235294 5146:0.0588235294 5147:0.0588235294
32 36:0.0833333333 188:0.0833333333 213:0.0833333333 252:0.0833333333 318:0.0833333333 590:0.0833333333 869:0.0833333333 1938:0.0833333333 2158:0.0833333333 2297:0.0833333333 2327:0.0833333333 3699:0.0833333333
24.8988685133829 96:0.0625 119:0.0625 214:0.0625 248:0.0625 272:0.0625 381:0.0625 472:0.0625 2078:0.0625 2869:0.0625 2955:0.0625 3760:0.0625 5111:0.0625 5153:0.0625 5154:0.0625 5155:0.0625 5156:0.0625
27.3868077089782 15:0.0769230769 49:0.0769230769 118:0.0769230769 253:0.0769230769 578:0.0769230769 590:0.0769230769 687:0.0769230769 820:0.0769230769 2497:0.0769230769 2499:0.0769230769 5157:0.0769230769 5158:0.0769230769 5159:0.0769230769
19.5305014693904 4:0.0625 172:0.0625 289:0.0625 318:0.0625 568:0.0625 583:0.0625 1101:0.0625 2294:0.0625 2586:0.0625 2698:0.0625 5160:0.0625 5161:0.0625 5162:0.0625 5163:0.0625 5164:0.0625 5165:0.0625
